{"outputLayerOutputs":[0.0027368119057177183,0.0016148662611674613,0.998615938235269,0.0011831841139437831,1.7330331441658595E-4,0.0015893909660609751,0.0017655735244407414,6.347757381243183E-4,3.502785806093748E-4,2.8928073169439754E-6],"inputsVector":[0,0,0,0,0,0,0,0,0,0,0,0,0,0,0,0,0,0,0,0,0,0,0,0,0,0,0,0,0,0,0,0,0,0,0,0,0,0,0,0,0,0,0,0,0,0,0,0,0,0,0,0,0,0,0,0,0,0,0,0,0,0,0,0,0,0,0,0,0,0,0,0,0,0,0,0,0,0,0,0,0,0,0,0,0,0,0,0,0,0,0,0,0,0,0,0,0,0,0,0,0,0,0,0,0,0,0,0,0,0,0,0,0,0,0,0,0,0,0,0,0,0,0,0,0,0,0,0,0,0,0,0,0,0,0,0,0,0,0,0,0,0,0,0,0,0,0,0,0,0,0,0,0,0,0,1,1,1,1,1,0,0,0,0,0,0,0,0,0,0,0,0,0,0,0,0,0,0,1,1,1,1,1,1,1,1,1,1,1,0,0,0,0,0,0,0,0,0,0,0,0,0,0,0,1,1,1,1,1,1,1,1,1,1,1,1,1,1,0,0,0,0,0,0,0,0,0,0,0,0,0,1,1,1,1,1,1,1,1,1,1,1,1,1,1,1,0,0,0,0,0,0,0,0,0,0,0,0,1,1,1,1,1,1,1,1,0,0,0,0,1,1,1,0,0,0,0,0,0,0,0,0,0,0,0,0,1,1,1,1,0,0,0,0,0,0,0,1,1,1,1,0,0,0,0,0,0,0,0,0,0,0,0,0,1,1,1,0,0,0,0,0,0,0,1,1,1,1,0,0,0,0,0,0,0,0,0,0,0,0,0,0,0,0,0,0,0,0,0,0,0,1,1,1,1,0,0,0,0,0,0,0,0,0,0,0,0,0,0,0,0,0,0,0,0,0,0,0,1,1,1,1,0,0,0,0,0,0,0,0,0,0,0,0,0,0,0,0,0,0,0,0,0,0,0,1,1,1,0,0,0,0,0,0,0,0,0,0,0,0,0,0,0,0,0,0,0,0,0,0,0,1,1,1,1,0,0,0,0,0,0,0,0,0,0,0,0,0,0,0,0,0,0,0,0,0,0,0,1,1,1,1,0,0,0,0,0,0,0,0,0,0,0,1,0,0,0,0,0,0,0,0,0,0,0,1,1,1,1,1,0,0,0,0,0,0,0,1,1,1,1,0,0,0,0,0,0,0,0,0,0,0,1,1,1,1,0,0,0,0,0,0,0,1,1,1,1,1,1,0,0,0,0,0,0,0,0,0,1,1,1,1,1,1,0,0,1,1,1,1,1,1,1,1,1,0,0,0,0,0,0,0,0,0,0,0,1,1,1,1,1,1,1,1,1,1,1,1,1,1,1,1,0,0,0,0,0,0,0,0,0,0,0,0,1,1,1,1,1,1,1,1,1,1,1,1,1,0,0,0,0,0,0,0,0,0,0,0,0,0,0,0,1,1,1,1,1,1,1,1,1,1,0,0,0,0,0,0,0,0,0,0,0,0,0,0,0,0,0,0,0,1,1,1,1,1,1,1,0,0,0,0,0,0,0,0,0,0,0,0,0,0,0,0,0,0,0,0,0,0,0,0,0,0,0,0,0,0,0,0,0,0,0,0,0,0,0,0,0,0,0,0,0,0,0,0,0,0,0,0,0,0,0,0,0,0,0,0,0,0,0,0,0,0,0,0,0,0,0,0,0,0,0,0,0,0,0,0,0,0,0,0,0,0,0,0,0,0,0,0,0,0,0,0,0,0,0,0,0,0,0,0,0,0,0,0,0,0,0,0,0,0,0,0,0,0,0,0,0,0,0,0,0,0],"hiddenLayerOutputs":[[0.9999990212403139,0.028293809662156635,0.9004495172047808,0.034490227840986105,8.6448003351801E-10,6.731090973296416E-6,0.17133679248767517,0.0027800899454656323,0.007935670379951295,1.6413337897073965E-9,0.9900351749837917,0.9999798015024474,0.9999998446234758,0.9998860962308693,0.9999425064938481,0.9987586950729009],[0.9933409836888094,0.05149262091956508,0.24318201717025162,0.5708498498817303,0.7565026202336849,0.007613196776720936,0.01912130260744673,0.026194697520276932,0.9930728497044415,0.9984424391053985,0.9654607016826575,0.798507400813177,0.5175942864922881,0.9791047604121583,0.9817493435169387,0.9375716396041734]],"outputLayer":{"neurons":[{"biasWeight":-1.5878305744558323,"noInputs":16,"delta":-7.469640304572924E-6,"weights":[2.5288855151891774,0.46838882291268225,1.012328361255865,-2.6045540216260314,-0.09377075536990036,-0.9851783993469658,-0.05192649351915222,-0.15680262038244608,-1.2866060475201475,-2.2710779500436558,-2.1486345144709595,-2.133808070299616,2.3014620823154806,1.2311258779850283,-0.10981514723393722,-0.52016302403479]},{"biasWeight":-0.8845769646610143,"noInputs":16,"delta":-2.6035818044582194E-6,"weights":[-1.7840938346250073,0.06683435257652953,0.14150358488079148,0.21065739877446635,-2.8610142259340425,-2.6829969434723027,-2.650786119587207,-0.8794252468795346,0.28025381191299875,1.3084054174795083,-3.4025889629368127,0.0471474811068907,-1.7427655717231294,1.0686235243371152,-0.08032087312544316,-0.0771644033133591]},{"biasWeight":-0.9099694795861242,"noInputs":16,"delta":1.9129756225477097E-6,"weights":[1.849792877426494,-2.834024531650164,-0.7767086465494475,-1.0850963054336924,0.5009932826022938,-2.2491392294745616,-2.1662994099281345,-1.3164659289818195,1.8794244953076888,2.3390642300911946,2.272562776091727,-0.17748236257277406,-0.5848033772300095,0.45569847598715185,0.5020738334687004,-0.6063115605629888]},{"biasWeight":-1.1987141501233798,"noInputs":16,"delta":-1.3982682788853078E-6,"weights":[-2.194215454465469,-2.903222674094165,-1.7506105706297355,-0.24045053783115244,1.004365341734811,-0.28165575063966214,1.4442767999383475,1.4454445194264813,-1.4712407323264034,1.2980027744803142,-1.6778841749428424,-0.9479535308713096,-0.3367935419308302,1.5307892496088176,-2.962499402125731,0.6988115064619503]},{"biasWeight":-1.0606776821383375,"noInputs":16,"delta":-3.002883378930681E-8,"weights":[-1.6034362393725992,1.451175209453706,-2.3716056728010964,0.3877461049938007,-1.7228944468602214,0.6356913044627494,-0.3569904506677763,-0.40488267606002926,-1.597783630441701,-0.9865314958828001,2.471114974226839,-0.2284535838781892,-1.3818493011407624,-1.9083379632549307,1.3337791862926192,-2.951878427161591]},{"biasWeight":0.009989549778024766,"noInputs":16,"delta":-2.52214858132327E-6,"weights":[-0.6583660020687967,-1.6885536717375444,1.8887108491607267,-1.293828853307539,-0.37891084569384254,-0.5774464467402065,-1.6503117763337294,-0.010558781913689533,0.06799353135927157,-3.4236342104637973,1.1375423071571644,0.5336933000479479,-1.5298069365186873,0.9529002016563054,-3.1333917311515993,-0.3715065984600615]},{"biasWeight":-0.583569736239478,"noInputs":16,"delta":-3.111746136366199E-6,"weights":[0.7932101545233003,-2.7166516187985836,-1.875393807221556,0.1599200098952641,1.1269447062128266,0.06067308628011926,0.31752983927799366,-1.2511979234554942,0.37500359346643486,-2.013701746855382,1.123208473438559,-2.2869319280808678,1.0991695182342065,-2.3319748987448983,-1.3150920858447452,-1.576644967034826]},{"biasWeight":-1.2483565966515036,"noInputs":16,"delta":-4.0268446102445986E-7,"weights":[-1.0790433038513982,1.0499040494221374,-2.0763879206969786,0.5308358993445643,0.6037712792270786,-2.8864050379991157,-0.9090037734231228,2.054226402203722,-2.1725625940359823,0.1068561212836339,-2.678197536147297,-0.28702063309515635,-0.9586448735853096,-0.9367010090527795,1.766186349947808,-0.8742549054867579]},{"biasWeight":-1.1106694066286686,"noInputs":16,"delta":-1.226521065738352E-7,"weights":[-1.2801837073338433,0.4858301743473493,0.3426115501815379,-1.0723595748612407,-3.196657676545918,2.3222911290238493,0.7787415258236186,-2.2222123782911947,0.10286409049407583,2.241292959407737,-0.4611176629595328,0.27536876043039865,-0.49874860134958215,-2.061471650606705,-3.0718822562126187,0.5880690954861928]},{"biasWeight":-0.9464979197708713,"noInputs":16,"delta":-8.368309964986275E-12,"weights":[-1.6407197805810536,0.4672913761676097,1.3928834414337636,-2.0609112980936377,1.4889823520916488,1.4822210351318543,0.48377749141903714,0.728499937312288,-2.1751094434961753,-2.3522652337335272,-2.4348898969964097,-0.29300766906331616,-1.030382416028193,-2.8188830316110938,0.1352955281810942,-0.29380351337300936]}]},"hiddenLayers":[{"neurons":[{"biasWeight":-0.26301188088428484,"noInputs":784,"delta":6.489207422156823E-13,"weights":[0.23113615421424816,-0.09903804840898722,-0.11130890491122669,0.20402242776417046,-0.06890678819578822,-0.17072050465192368,-0.028256889129624874,0.47343922689323636,0.42076673459199154,-0.2708053217156433,-0.41184689264423213,0.4453000148482299,-0.423688243096939,0.3589632714120794,0.12033434774691254,0.32855215268581195,-0.018470477871718627,-0.4916709046748535,0.06750728092615355,-0.25374876227101306,-0.26114890076151087,-0.2927661528700771,-0.3050081668374467,-0.4627470339351697,-0.08483245164834807,-0.1990512673072724,-0.3026708823194332,0.4128060335041188,0.2996615290670801,0.008479479447829452,-0.214703071353327,-0.20953539727536874,-0.2818227566458591,0.15629208982125897,-0.49760833033947904,0.1560590067516504,-0.37770067186904666,0.010851526928607913,0.37810723732653684,-0.010966878152982806,0.05119340853037102,0.021161309947819507,-0.2615977481844431,-0.3676682885708327,0.355447855541917,0.3264369483114449,0.06757576126806764,0.44466038106658223,0.2241091030211766,-0.41575848669551585,-0.02221592133855521,0.3677679468747065,-0.2037587619237502,0.030857283782138145,-0.013821788539725266,0.06795802994029254,0.36021153140419515,0.19836208764134833,0.486413629200407,0.13062344828331318,0.4088017458338853,-0.11817495322563143,0.2575300450674707,0.1256544063243299,0.3526057748286317,0.266388687592925,-0.38321620643912035,-0.19847710088186113,0.08411867734144907,-0.2639618994438255,-0.38028694275542635,0.4535270857202279,0.025795479520428533,-0.17101191953914724,-0.2621535265117139,0.23473584095472108,0.13332755739326219,-0.4850013999401208,0.3343209413241489,-0.1746981552023832,-0.2311461396486424,-0.15959279700804574,-0.4959380827703248,0.13391224749096664,-0.33414377581614507,-0.0038779329873543933,0.48872090959553716,-0.04507984034198287,-0.45625710936697006,-0.24561801545053907,0.07007499516942903,0.2306722779852106,-0.004944696338024077,-0.40496588466810146,-0.44208425187049166,-0.15487734340314446,-0.34455377570171647,-0.11564659960226405,0.3088979524615563,-0.3171390286761834,-0.25481477133911457,-0.11122760578689801,0.28442269498345063,-0.056953718544041666,0.30711393254159314,0.007183556905491949,0.24577701145025224,-0.352437806564198,0.037326249833859904,-0.3061751619146018,0.2448460554083538,-0.11479597017001153,-0.1666349436395691,-0.0970804010017764,-0.34583266573323923,0.12111519881341626,0.005355573061516683,-0.01569177242976394,-0.21737854462711517,0.1098569843482692,0.06390390544188869,0.4896350758155859,-0.34062069826633223,-0.3403297181898491,-0.11876915587485123,0.12798302008091889,0.10162072332541724,0.3995834354950116,-0.10347992881523933,-0.3296113971731179,-0.24952980569849603,-0.15217312423968163,-0.6352402172484788,-0.3372469776482604,0.2512020271794413,0.029116111035741483,-0.0902163173654783,0.03605598913883423,-0.291572818430493,0.47888545529096704,-0.006040755830103328,0.2131964295991976,-0.23367036711398836,0.37392189192354175,-0.04967350553414218,0.09268889417842377,-0.3833019799494198,-0.4405795613242616,0.32422143447478124,-0.2548382516692274,0.4975329759477592,-0.25175941957108666,0.2617346529801868,0.2624110188046304,0.026561025938748553,0.5347808304709635,0.40254413503005315,0.5427786019745914,0.11104166302915164,0.2213231647416028,-0.41988685780423285,0.16959271348085914,0.4370881401277549,0.23000728540913443,-0.31015613020343,-0.11949093560858863,-0.19715739558688716,0.1400441206174381,-0.2365035854098516,-0.38072113356208437,0.3596494766992875,0.3236723479552952,-0.46593904061089325,-0.30377417355750036,0.30573468495442396,0.03213429334651466,-0.1272607860835296,0.36682355960981083,0.041608780338179066,0.10057861834290499,-0.4263877359673355,0.4671083134682972,-0.12396994641361787,0.5155262366912114,-0.11379653639283609,-0.2958874317210851,-0.24723683568159008,-0.21563142960450166,-0.1576768489133914,-0.23565047625631783,-0.0012602631422320141,-0.09030211353388938,0.10104527426298922,0.32198364122342954,0.36001630627166514,-0.00888203918802366,-0.07109233842477647,-0.37156806358420846,-0.2684483639486823,-0.19591747152091143,0.1602551691048123,-0.4333917661325793,-0.22948968567246633,-0.24698538664706507,-0.26985036088156267,0.34133238957441925,0.32848217947639213,-0.4039510639959252,0.0946645731140978,-0.21729876644519386,0.04121025901102287,-0.29343580406842606,-0.12883057162094455,0.305096642334931,0.2881557596343107,-0.16063642507784423,0.46718754299532894,-0.17865905527244322,-0.08856649225297393,0.3337985754435636,0.34435162683810283,-0.15180917049850212,-0.18599450316695793,-0.12578129753362333,-0.4974103976116212,-0.4194574362150989,-0.33794564915506553,0.515332629102063,0.4055238858273836,0.18288907216294253,0.139452449060925,0.20119892266856793,0.2963935219919381,0.377903333284902,0.6726438018074629,-0.3163494540138737,-0.5051308234633678,0.1329606041253844,0.030506594770970716,-0.1639713230355342,-0.11710256328296255,-0.48938158106549196,0.10328415629551305,0.7223456820661559,0.4424274440711561,0.0407303539007973,0.3672014791551337,-0.0022540129682919923,0.14742278009831616,0.2290393000616699,0.4045562074104836,0.16899675185408003,-0.10491240244194644,-0.08894567219905791,-0.45950577676931853,-0.08380042197697764,0.14379547810123405,0.3286954614641186,0.46056960399934493,0.10525071419358534,-0.4289903736115304,-0.1495304991658474,-0.2467373238937846,0.16751815422670635,-0.002292437855272841,0.7141397370485144,-0.10488735718528998,-0.307216340162684,0.42543669689150265,-0.18265935952611465,0.15135183776521646,0.47195665320622354,-0.06177130111287211,0.09377554279358281,0.33043142149613425,-0.02710376928480696,-0.15911348077982282,-0.2853534728622647,-0.16453929893826624,-0.1443488851794258,0.39878819733351134,0.25397200051299507,-0.25410956981067634,0.05763953559706859,-0.015652646055042827,-0.31970421211617417,-0.23096042201793707,-0.3447192052014588,0.015280677417071162,0.22707368230628888,0.3145805818279276,-0.5270209782501215,-0.1218149759990041,0.3588873317964856,-0.06490749279188712,-0.3701039118909047,0.18831920958618337,-0.2257519019064173,0.2877318458323717,-0.41802149105763936,-0.4303984240379457,0.11801311428237235,-0.539191613661541,0.2393137823923849,-0.15009808197145477,0.5818134419285813,-0.3590887262323623,-0.08649241031831123,-0.03852769622691965,0.02369933736395824,-0.49847977589113535,0.21764133961561702,0.3840865187950738,0.15191298257827732,-0.21701024633317204,-0.33852164314581046,0.2803498504224622,-0.10810073191193825,-0.6638975782162714,0.29435698217398676,-0.01417255737171211,-0.20196273038183188,0.44046321290021934,0.4485836721565992,-0.4980955320627809,-0.5824029184184881,-0.15988683150910285,0.3658962408614248,0.17300103638037195,-0.10680219037732384,0.10383066236080422,0.24543691913837792,0.023766290581894122,-0.13455262061013773,-0.08849144058978065,-0.41984058927603585,0.35846341949599914,0.2521686749384967,-0.4644630919933196,0.155228809863903,0.41718829455633916,0.073978005197533,-0.19394955010790565,-0.06330120351598363,-0.2390045586890936,-0.33455804270646977,0.19790647836897104,-0.11360063736643275,-0.29628255263315345,-0.1037039245735377,0.4960532070474705,0.3695167868257348,-0.38339228065165215,-0.5685667565302485,0.06905112956438737,-0.26544158336298296,0.19221057448507078,0.3739283715563803,-0.302255184463236,0.02803637259230825,-0.015802495286258707,-0.16604523280414374,0.009463788512200866,0.024484260001691016,0.34573727443639657,-0.31083327982399467,-0.014967852521476255,-0.039388832728743925,0.14131142389731374,0.37677873902589987,-0.2686112160232086,-0.5026319940775623,-0.008301432144498116,-0.406520861787955,-0.16768325222819816,-0.13587105052555976,0.42807235703996405,0.5859556563356983,0.39205809278979586,0.25958043403966174,-0.30276400853205476,0.010993834614655999,0.0774536960233111,-0.06761846836091408,-0.2846952110576048,-0.32166584289002176,-0.17227055772877437,-0.4695147418637361,0.4663249619580663,-0.44460642109774423,-0.4907272610823845,-0.3910774174654603,0.19374350792198003,0.49895543730418446,0.4525342705530362,0.49346311817382904,-0.23523316425519733,0.09121490820508167,-0.013363999962121294,-0.37185271824777455,0.24079015262812611,-0.7122846444475366,0.13273019717669854,-0.22195038323906577,0.6570554942622288,0.8007132524999618,0.41108441616795915,0.4722951262623326,-0.4288083645982965,-0.4240262677463695,-0.33903312910580863,-0.00822999331566369,-0.3962120752389998,0.06598408009170607,-0.11471001424239081,-0.08420705422045986,-0.275715572008309,-0.1422748979694656,0.11271906478124116,0.13222149919918225,0.16282107890421182,0.3052332520859039,0.3897466258309442,-0.14788224557867558,-0.2401089624517532,0.17303443482240013,0.3036592538658216,0.17044763636166435,-0.3467439197154785,-0.319117156114471,-0.29402414853534403,0.1283718764537945,0.07416610432588758,0.5197888013349042,0.8244717839133439,0.31402800580168755,-0.16333316331768857,-0.6801414739254598,0.13826840520938333,-0.39546125569921986,-0.05139843188785913,-0.16865850434526114,-0.21245558956945565,0.10430903423388625,-0.10384114340045228,-0.21773294699798298,0.45927195017544553,0.25342003786824574,-0.014026656989815312,-0.15082399149499937,0.3395518322329244,-0.2539289495335641,-0.09350461307938199,-0.3600316261375258,-0.3921964159120092,-0.049760498325591596,-0.45257584837002474,-0.32364515304080743,-0.4452616724497521,0.07978761762332232,0.022902235270355103,0.007649719792350056,0.11172986045264237,0.4790490967028455,-0.18724256858374674,-0.21606216129868527,-0.2717994228445484,-0.014059754444847186,-0.271418530533096,0.40306106398347474,0.00949770822918778,0.20464373486032156,-0.026037938888465555,0.11838517872703111,0.14663736008445138,-0.29882942465642237,0.27340087704870586,0.13174353718112053,-0.2548863181899722,-0.4294552806010928,0.0910284989430242,-0.47735008915405747,0.3830220915152623,-0.10332696159210508,0.5251908615886726,0.41703001392321465,-0.33542100953554316,-0.35348887254172306,0.024742403958581193,0.4623173169902384,-0.050752905736710326,-0.22650592170714878,0.03760900369603072,0.3634131213813631,0.07973725157701844,0.28041285957282397,0.34646894506229275,0.18564331978037793,0.40885345019475045,-0.28339745723896675,0.34039975234561226,0.059271946734339345,-0.4229495924488052,-0.13043718458999987,-0.05442710850207522,-0.3883681129463792,0.05799704429652889,-0.20402216109168148,0.378407152409227,-0.5577903773422297,0.053471673926254785,-0.2238668095968738,0.05686594264234847,0.5714443485052446,-0.29725722514146097,0.15980436889304372,0.5072602665090136,0.09562108482988535,0.16570157015104253,-0.36073635033694706,0.3250292318046411,-0.33556227208231876,-0.12035879645805757,-0.3294207523598767,-0.4921078138362775,0.3662560656985396,0.11082252465211984,0.4839591500743429,0.47153037272375514,-1.2351688249534636E-4,-0.34447931298240103,-0.0075640739420798075,0.3377512109106152,-0.1758023719475359,-0.27658114798190503,0.2408934686937832,0.43807066924786564,-0.31637297824262667,0.07233875239813567,0.3671852864371695,0.30722704441078996,-0.27958313515102795,-0.2627991492174017,0.5003883702931687,-0.01815234461412047,0.22190399055141258,-0.5687832461056893,-0.0343016423290542,0.3721211962985548,0.10751342115922959,0.3590457660809339,0.12796377584602728,-0.05535274782240462,-0.2405536247154735,0.5744715655539268,0.6240224208715321,-0.003112501973033176,-0.34177723929286535,-0.15844354383825382,0.272735510791424,0.49876345682859835,-0.32562487073357416,0.3829461517560354,0.02730786588758577,0.15838864496806487,0.36576119295778164,0.16785955786272427,0.18076002441116254,0.3948188620478232,-0.1291663609670602,0.5396450230754105,-0.06457863091321907,0.1189331361919772,-0.4348707561309168,-0.4009520885398859,0.45538093012825626,-0.1705406784516245,0.18781665629117444,-0.35747239445612694,0.5708984347309838,0.4176591937248854,-0.25554864595330534,-0.08850858037850559,0.09594465968228465,0.16672351092886084,0.34057287119065477,-0.16239619893077537,0.12179200412754254,0.43045474433925046,-0.3619463672187292,0.1161734899533379,0.5083642848433299,-0.12148598265488161,0.07415001395834739,-0.08628349173091811,-0.01517801598908667,-0.15216650917909846,0.04419053167604531,0.38314293150965134,-0.05793256913633675,0.19539788987438703,0.3062994846439018,0.49253165780033614,-0.19335096357516865,0.16030720515147792,-0.2496395748519759,0.2464102068917499,0.4117430491762658,0.21160892155704975,0.03464642144486396,-0.1494798281170939,0.4060430739527969,0.4899067160747837,0.3515721475559136,0.25657818221550444,0.035467603338090625,-0.4183697405375594,0.1815757446954297,-0.13210463880015777,0.40416814060005446,0.02069583679193055,0.5524083028303175,0.5204546332016214,0.13859491311540975,-0.02593485980562673,0.4037588508442722,0.6080554295431893,-0.2501042981975624,-0.2834226756947186,-0.13485134540390947,0.1796952263050401,0.38337694133927225,-0.49716827136203556,0.29464546060204827,-0.022950660463306603,0.5980217540721197,0.39181378456127014,-0.17916347385922898,-0.3972473873074774,0.38441588285953743,0.34670845777160286,0.354990931372459,-0.06528456336570931,-0.4000611553003952,-0.17856616532781244,-0.12203530671279783,-0.035641921817416766,-0.09196083337354606,-0.001440287790740811,-0.0030238056388376335,-0.3236962562461635,0.21978030912282895,0.2357889221334637,-0.1944165701843193,0.4820849397129994,0.652705409316818,0.7332229813519137,0.049883543421101705,0.8720098884610671,0.5209949024660292,-0.2419831763109159,0.4432374388701337,0.4363084464851308,0.39109518887665734,0.020249783659012185,0.4947453699743224,-0.381509727756469,-0.4406012320889041,0.11804761766492879,0.2753962518372277,-0.008126333150938025,-0.32054707708212393,0.37199023304540846,-0.03881724941977571,-0.4388286624203076,-0.043560842496115804,0.3786978765826643,-0.27320493640614185,-0.14900159689930656,-0.05518125640305411,-0.025167795879296847,-0.651087263376586,0.3951869004078768,-0.2466531777623845,0.20999607959383043,0.16719609396413138,0.544691770698675,0.09476535848477746,0.2661664176315686,-0.2529845559872214,-0.044292527720484066,0.18047897654257,-0.15295261827438206,0.09355923870708756,-0.4100548951546687,-0.4479947962032569,-0.09050386983516989,-0.07454562339461235,0.012456284129971351,-0.008284934634588681,-0.22122813106435169,0.41616866541762987,0.2648139863329023,0.38898953585977303,-0.18598899864715113,0.23874275755634233,-0.004021162745364015,-0.18970766084338847,-0.3611727520800851,-0.08769534581631919,0.0829637666816383,0.005568105968204005,0.23254848087669994,-0.44629759367366206,-0.07564601841265697,-0.4264373252432211,0.026883256519868146,0.21556979234188473,-0.30973250411293174,0.44312727985690303,-0.22072674404972425,0.2609325280590131,-0.39746965735458417,-0.4745563859693488,-0.3762590455925967,-0.4406633969266318,-0.4232007868923987,0.023635970044961097,-0.06046625273755579,0.15259724736588443,-0.25802976839602587,-0.42168402539989425,0.19434055375850312,-0.30778570895945767,0.31197726156596184,-0.32897989720026616,-0.456814710595926,0.38309942906294353,0.062262253222328104,-0.07312510506407617,-0.23205106702344772,0.25739702698286704,-0.36001046546716386,0.24812066306452685,0.08622747247159994,-0.4996711541581419,-0.2331145325544394,-0.10373487625586267,0.4230512418545037,-0.18392628679331469,0.32264665570125306,-0.4867725279508206,-0.2227255294188607,0.1445600423573704,-0.34127823946380376,-0.41901276233987683,0.49879252591149714,0.354249386227834,0.3533251839882485,-0.46754040738548885,-0.25440316034646204,-0.32895613762382014,-0.25194122973978983,0.38648164106561855,-0.4543635377248896,-0.2328254361733083,0.16484833861595516,-0.33910123505651546,-0.48243972654981593,0.43513977121799763,0.38992895920170356,-0.36995477957653067,0.48805705181004977,-0.2688409590142261,0.4113751123665256,0.2819452127944082,0.3819831462723654,-0.3857996480943162,0.37395124943629354,0.4307474787973604,-0.21365321553933558,0.39009739189171433,0.0793163268552316,0.20008402963674465]},{"biasWeight":0.4888037893966472,"noInputs":784,"delta":-1.8476420506446223E-7,"weights":[-0.2664234781920073,0.13012333281248112,0.485878159236132,-0.42329177688371666,-0.3430277871969811,-0.00668673965803479,0.07193987500029464,-0.12245993317721715,-0.4376517221533609,-0.15909008507163402,-0.21399042678835345,0.3118609062888622,0.43118975100163837,0.015880790236149966,0.45616816920184167,0.3841514745107023,0.28121189066014185,0.3661360538945595,0.45585203487106507,-0.3587887969723048,0.2512794176183766,0.4914962859177693,0.31028185742316894,-0.25766385651657586,0.06312331998425325,0.1564669803802632,0.17793422951305937,-0.48113363406155196,0.1524883133184033,-0.26408434486471666,0.017755826351741222,-0.4628287653117791,0.462539518159079,-0.41874440455033013,-0.09386050094341103,-0.22222578928700587,-0.2511981153427236,-0.3785024513648553,0.2772528386286688,0.04820112132612098,0.25760138363069873,0.34653884642113963,-0.17387003797147585,-0.3417299299215518,-0.1910769979058943,-0.44068273215528686,0.43600237579187007,-0.29608257285063033,-0.3602098416021231,-0.0710356364791771,-0.2303150472804495,0.029307669330622454,-0.15426456139686284,0.4288514175161845,0.09936339669744687,-0.4331821013955707,-0.10441200580385879,0.2014283861998286,-0.4600002942275111,0.2906696993074459,0.4887980039047579,0.2560144830748843,0.09860269267983435,0.4623250605271956,-0.02532575762490476,-0.32405065273179995,-0.15646820976182468,0.18388099289081128,-0.3511746125601811,-0.35401674356956425,0.13013173940588824,-0.43352795852253895,-0.5113887989453405,-0.02311624796775648,-0.21555442593486399,0.0738668687680452,-0.1824352506284711,-0.4179901278694921,-0.22025158048181903,-0.09574596951816305,-0.26140682501893997,-0.08381305313331378,0.4554454050291391,0.21841320036604994,-0.19897479438777155,0.2097449521435708,0.3693706563051007,0.10607546626071906,-0.1953385350165242,0.0015357682846316445,-0.2180396778620638,0.3821971542712354,0.012443459428743487,-0.06279444212277285,0.3444678367745692,-0.2918497355835763,-0.4707125969206836,0.058339648141358065,-0.20404927838804135,-0.3148974024602825,0.024106346768633703,-0.5482169587782744,-0.06648944327335587,0.30981992530272484,0.031308061351345506,0.26282494276033513,0.4432253474927193,0.2591030385648524,-0.125152498792363,-0.19575962162742988,0.2571390641075929,0.29179186261018275,0.4668312190049487,-0.458000272943036,-0.4359844482294962,-0.2217243883420844,0.21399920347432233,0.4094286817678454,0.38461835485947077,-0.19046988102663875,0.033110336848864386,0.16600849167698564,-0.575092730433955,0.24877192951939717,0.12488556717642102,0.13985941412036101,-0.047521715431274765,0.09083637113705331,0.2195618529815083,0.2830253507631547,-0.2530097266459013,-0.3098555295834837,0.5023401723805873,0.06914058542352072,-0.11058555029937063,0.19015627005457422,-0.44207062268966557,-0.28637141297870483,0.4513510948701457,0.26356884531692093,-0.14295336211194454,-0.029459370602352708,0.2642384571527986,0.3461541880683685,-0.2607231014385909,0.1440745523892356,0.25298252182822906,-0.33608580423846235,-0.3586274615042914,-0.5010688685423058,-0.1164376163403678,0.1869002311250227,-0.16661671030991063,-0.36329471318705464,0.40929964826767673,-0.2667892008259152,-0.43168773566207963,-0.06368016535856497,-0.46306656763248166,-0.31984164722698744,-0.0428164589791168,0.07057758012442905,0.46516577607512544,-0.021439796219488223,0.3249369002203017,-0.19820024916024626,0.4437160790344493,0.04011693022572138,-0.1678523429758002,0.4070251056515106,0.4306690666668733,-0.12631108699045113,0.284252975096853,0.10394563087031325,0.031158371926909005,0.1946581530139444,-0.0482152146212586,0.07978698699968884,-0.009483367965362493,0.2385607212214414,-0.24893798093016828,-0.008950905641636187,0.04958264130700808,0.1781000718963272,0.3595752475844699,0.23788892478028315,0.27538506941529595,-0.10679553272855655,0.4924631672097327,0.1544144303984494,-0.38989216907086854,-0.2865206733412163,0.2591384258245226,0.11959121066090338,0.12786735285672332,0.10098537477747449,0.4222211898163445,0.4771717454641119,-0.37994375056409935,-0.4974770200892586,-0.21408266655587152,0.2817898104207233,0.18214808820106823,0.17414660522601055,-0.17595438267827126,-0.6743618207794126,-0.455384609938085,-0.2953894471057789,-0.31718222825598424,0.6217256821646034,0.471724814284776,0.10926323393506714,0.21671994011416942,0.3902217683424377,-0.2040824125439033,0.004676420649466585,-0.3666768221116954,0.5877420663692514,-0.48619044289444135,-0.4879870527817612,-0.20641294965789622,-0.320938574854855,0.5157500724571319,0.36537630107398134,0.04903588438476292,-0.09810196542355165,-0.23939037029591215,0.25119532190761557,-0.27057464272655296,-0.11764607464054627,-0.363449370208721,0.06250586211721249,-0.057561657654364495,0.08232954130220657,0.36284859414252574,0.07654873774148842,0.3124111936096557,0.18118182831337898,-0.031461234182121545,0.45667723882891764,0.012381927173785591,-0.07783082496002444,-0.33258355975611054,0.2521424686990997,-0.04873691268604128,0.06751829753872902,-0.30947066233447135,-0.20225550044121446,-0.22885550468079363,-0.2823447459611476,0.09233457701645964,-0.1437667234930703,0.38459975163711513,0.11633210457311005,-0.02366221032028821,-0.17522797380561533,-0.35990031062083583,-0.18695807556985994,-0.38668760875910624,-0.2544701764088125,0.6301314089398933,-0.3605755666468674,0.18826431596101956,0.7143983948608971,-0.21057072006335653,0.4493065219525177,0.3669771656883084,0.47386039997360924,-0.004719968093196066,-0.19983551846382439,0.1901224697109021,0.13745707935747514,-0.1448939557209776,0.19978596720549485,-0.16773997874226299,0.14980672704607517,0.3588510470568628,-0.19715340533102052,-0.04071335729288161,0.3038793379935514,0.10899190437782935,0.45369428670566214,-0.4969583221748717,0.13640441148860527,0.21945314013995057,-0.07663493057972409,0.3216610193952208,-0.043417118960353725,0.17139603713163454,0.36859826877906476,0.13638331092717895,0.5083619976750422,-0.31040866256973165,-0.20024983718844674,-0.01852162487437307,0.4966867261388839,-0.20382387616254322,-0.4147583415614093,-0.0759623380386684,-0.7859638053221263,-0.5079650487729843,-0.4815100969673078,0.24909706514024324,0.21953003523909473,0.4946603106357741,-0.15107978827780214,-0.03611541062353196,0.24227451402614086,0.49920019700745377,-0.039697670848611644,-0.06971411904165281,0.4862695240252417,-0.12145543631083615,-0.15342687229980057,0.18865333058008837,0.5308278401757746,0.06841980210655449,-0.5630588502850968,-0.14169881414170718,0.10107264851592476,-0.30757745409399884,-0.22423890295158092,-0.011399708130469269,-0.24979621653145406,-0.029335561210892737,0.22431311792003214,-0.1275557826331393,0.21219865939956084,0.242518526618935,0.32243633034598823,0.12499263547170493,0.5900254828936877,0.06084408442968918,-0.07608328553936883,0.12763042678698708,-0.09415421749665098,-0.45660740743742123,0.49096148834457276,0.3835966753581621,0.23255844863470623,-0.2653708237126763,0.407359478953128,-0.5357031339545879,0.3853726140933064,0.0783815560713191,0.612463056862156,0.3227957772546506,0.24752370942296228,-0.5855765112070695,0.17569335609047992,-0.2547983953883974,0.02612344271835682,-0.19333369522866653,-0.2686346561307767,-0.11590544559324915,0.19241395482402854,-0.45616755752873434,4.477619785800593E-4,-0.01894692089879969,-0.0063406744253929346,-0.2946251352672421,0.40542387565821014,-0.14043749383434911,0.33347503973706993,0.13149464909152753,0.16075908400900574,-0.36189676157893547,-0.1507183033982646,0.32500230524665874,0.15487241815438604,0.260742005872548,0.008242630378099202,0.12736660855185472,-0.07529182510342514,0.22022720380173239,-0.1815638503256519,-0.02209419260600506,-0.35320654150056435,0.14615806237164058,0.23141067749925706,-0.45888277324067156,-0.46245211001390935,0.18324022263177298,-0.3586338661898529,0.10272696422986202,0.1278977537050639,0.16795311409314123,0.03733881435787816,0.08680634699544844,-0.08175725439733436,-0.18576909295409383,-0.47138617801979077,-0.17685836441399128,0.4997903535579967,-0.4744413591952038,0.013288313763812565,0.11340236289162033,-0.3588117883790722,0.37319672595274467,0.38952546864567167,-0.09670749224833874,-0.22630751747505065,0.4972081358567811,-0.3651336718980276,0.0884914598416226,-0.36142316931719193,0.44762467075709284,-0.1495850837153095,-0.3002212200552834,-0.09970296916457876,0.0652473390479559,-0.2112610592220624,0.4033521461027028,0.1716202092778476,-0.3129892195237435,0.1035412647240965,-0.2676428888106517,-0.11401428295779038,0.049814493070564625,0.3106257251815341,-0.2619815362390888,-0.2283994039290579,-0.3547087124775161,0.013867426068771782,0.2978327132605277,-0.2851382252103496,0.22969946211631456,0.3231987407270824,-0.3400208036830701,0.3608709809511825,-0.16571085909675015,-0.15476837229111073,-0.4603176210226591,-0.7099943543006679,-0.32607075276151615,-0.06475713408905864,-0.42842011851820344,0.3832612111171019,-0.42998018059184784,0.17681347361199665,-0.123921674387748,-0.23110742638385645,-0.4169348690933722,-0.27754753954004324,0.0054329672779869385,-0.31164410918852903,0.21130984929889574,-0.3776589937770204,0.2512962102768719,-0.12586350318713568,0.4617501558378819,0.07317241083654796,0.3156018538608889,-0.2911483646658412,0.4225587223298024,-0.18252009099218228,0.11835361374497332,-0.24191682466970282,0.3784634076758569,-0.25164662009868893,-0.02853064732754677,-0.5750034691997267,-0.18933284625745941,-0.45680884676538824,0.30902393995853344,0.15580177905261147,-0.44812586851350533,-0.3104492973143643,-0.19432765792937923,-0.4084261336109957,0.3724008576432807,0.10731751255984726,-0.16432855509936534,-0.47243105766261706,-0.17783722936447982,-0.4675598284663355,0.4083194465507133,0.043756887113238,-0.44417478453013814,-0.19448592032504008,-0.11271749375950056,0.27600129320395944,0.06575409388738898,-0.09240405790749548,-0.23223328840121663,0.21959603806890582,0.06449584433040789,-0.6524475919604796,-0.1321113413693936,0.2687496436128249,-0.02321436770843979,-0.380253071250204,-0.04672415429140381,0.013610046406669471,-0.22040520361665122,-0.2776171674191986,-0.4677835679042018,-0.27043711119284874,-0.24534651426487372,0.4264783401497648,-0.09975907949110832,0.45783423011374663,0.22457551272435666,-0.011333700453724505,0.2978934579636542,0.22836143697317124,0.06946033022398264,-0.41605752108607225,-0.21487428977354056,0.22980004799499235,0.26053232362071393,-0.047872822110577,-0.07595326311174255,0.026666351419001585,-0.42402825742519906,0.13053016277622326,-0.7537591510486538,-0.13587014354335802,0.08146690488078304,-0.4762733349598324,-0.2201834729696897,-0.24037983423528908,-0.056276828166957955,0.09250262708302978,0.12072641118438263,0.355461366839288,-0.23182124849822872,-0.1799697780737869,0.41746842476716645,0.18750305950715881,-0.028064715436375835,-0.4610014175984529,0.04246628567827815,0.48495364732806934,0.29703749810594804,0.3610106941444837,0.3088337664667048,-0.67047114299189,0.08074743174354856,0.22370155649016865,-0.22309835937947908,-0.4558417146013846,-0.5006304534701146,-0.5915496003107846,-0.3270597701569812,0.008253179064756557,0.21912867614169224,0.07336402289916133,-0.4067797249215962,0.27654797972534706,-0.43875040036427493,-0.42189776678245816,-0.22193624481724483,-0.5059528196831456,-0.08891145567850244,-0.16469699779258734,0.12245092831735312,-0.06536276173527024,0.2809563905119316,-0.2571973092394165,-0.42380454493604836,0.08996157332260046,-0.282842346328527,-0.4507611275098161,-0.46807480296516873,-0.4893829314520827,0.22509045266159727,-0.007395667523299059,-0.3169486278846827,-0.43421855329137754,-0.6045000573448894,0.6315570068060278,0.065174625274858,-0.5133390006363333,0.3053515344749605,0.3686079616270429,0.2992302372812554,0.3731077889525056,-0.4327292497977544,-0.27276251190771994,0.22137964319710957,-0.05628519461346343,0.2972119054573278,0.1304914265811807,-0.4790263901459663,-0.2523550388965353,-0.44570287529925934,-0.1573940838366792,-0.011665304581793046,0.2273986365639682,-0.040533135546451174,-0.1349142555245947,-0.36562661931877094,-0.08426150810358589,-0.5530831827395108,0.03537499824576219,0.015494478387966078,-0.44177518102442576,0.4995915581205269,-0.21515104089742051,0.5714436754708195,-0.09922183015492923,-0.08719271139959091,0.133557408350266,0.04962909861522748,-0.27248377371359256,0.003430764892075752,0.3088313228764903,-0.45695877540971463,0.18409167403589138,-0.3390191346763242,0.4372204923624047,-0.4900202587486214,0.2821198218152853,-0.02511374298194353,0.4595283119057382,-0.09042867488675033,0.14045388821321858,0.19505034501346086,-0.2344520363280027,0.17838596417411248,0.2085487839652404,-0.05738402355456372,-0.4002574306291103,-0.23629666359577708,-0.13411342687515054,0.1807305170659034,0.7490989759816357,0.19839870584709732,0.01914653001009487,0.16523356162452546,0.49038305751059275,-0.0854191467007606,-0.020644841904153242,-0.39076663226424774,-0.5411083802723343,-0.4870650966635577,0.020323018516163274,-0.011704899745139904,0.14442777338647303,-0.3685121263420837,-0.2012325016031866,-0.21884477170089467,-0.3884665522408599,0.21289017018408818,0.49635895246972583,-0.13431788440782844,-0.15524639364555795,-0.2751278559534201,0.3144220185738254,0.45223650581219305,0.25073331703409113,-0.3519625491783708,-0.4296624086444432,0.620821218419935,-0.15773399013503697,0.07896292453915343,0.23067835398489098,-0.06693758825084442,-0.15467061140149374,0.27759583455927356,-0.12103620235627256,0.40523012448965356,0.09971828287452673,-0.19359881028126663,0.4793428592555278,-0.039674812594057286,0.15200757349201885,0.06172804054271422,-0.31786276907048794,6.344254978281061E-4,0.23354557005085008,0.18823530503916952,0.4223872687743955,0.39999513473685244,-0.31774632047005413,-0.25663140231347625,-0.07064988180386118,0.047691222083263166,-0.07839269994944552,-0.021803817781993223,-0.02304374948825457,-0.03996573185326484,-0.6234316696190954,-0.6976104253040678,-0.72828799773459,0.2698172843418441,-0.1028114840202751,0.3845769040234417,-0.2832361492198934,0.061884564686768916,0.5398783278046368,0.09434803327561984,-0.45951664345863613,0.20305419907649203,-0.4166146543782985,-0.433087401442134,-0.29103530422051205,0.19767291189633562,-0.39788751384449883,0.33168610438100254,0.22259831315851086,0.035517869770599675,-0.4729783610076802,0.417383911214404,-0.3813821146580251,0.2333788323766871,-0.4619135367165716,-0.2173928626891783,0.21552904478284599,-0.015324818388090827,0.07566652064041612,0.13775427034002805,-0.16365127915420805,0.2771569145331263,0.46040413754019044,0.19668103701642173,-0.2091010308458606,0.3982292576889307,-0.07400792466281834,-0.38419184643895543,0.09748231151140241,0.08738228669282311,-0.07592066016575982,0.12627779896436175,0.08307984653005329,0.17696254692649716,-0.3653234663996501,-0.03494043268862268,0.1804478521030608,-0.08852641296976682,-0.3314785491819391,0.35977617602706724,0.3885797232401712,-0.2985686891105337,0.43403013401032264,0.35027735691046724,-0.36957128279992746,0.08021581331054477,-0.35545122333901225,-0.2616832229340902,0.2541800007444719,-0.3911520872824799,0.10666695426707104,0.2889852264993348,-0.44596080988076614,0.4599465368505514,0.21893018867709044,-0.029713622413894816,0.1324912481315612,0.25574513643276897,0.3821139668217971,-0.13801122665062437,-0.2749019007455935,-0.4624470071275131,-0.05535130059949944,0.07079597721351494,0.09164290968757505,0.18954864934158733,-0.06991046254841893,0.2406663308630963,-0.4812517848606095,-0.29725186607575405,-0.09709224018511431,-0.2574020382988813,-0.40293041416421493,-0.49817927026450703,-0.4053903580306075,-0.20328838219987774,-0.42310637986471844,-0.40105885268505315,0.36383236532801666,0.33300259908095975,0.4770894539286157,-0.3517112807690731,0.36116162028794163,0.1321394219787282,-0.2847353061634076,0.22654189647983147,-0.0025809166760254465,-0.2152455331571297,0.09078369555570365,-0.4632141799687386,-0.21163643667083265]},{"biasWeight":-0.12478542363561707,"noInputs":784,"delta":-2.471954744830439E-7,"weights":[0.25462760674441276,-0.2384282375303527,0.19693214425672378,0.01758136948912381,-0.32361775696818196,-0.02456280868395011,0.43675546193746084,-0.4831538346680341,0.2893733808633504,-0.13198432319756026,0.4974643674281509,0.39321075723522025,-0.38012330004923267,-0.47406395204758234,-0.15664357485847158,0.19343548052445336,0.2255060463658558,0.1750304196225504,0.3356236294578737,0.2798123852772426,-0.30535845523187277,0.09394161042721538,-0.06677422508311837,0.09497123411872466,0.29176715851485713,-0.12396017306596485,-0.3613738414350208,-0.014601635036199156,-0.4271553146025622,-0.16137026955627287,-0.02801000643611562,0.37727817550092035,-0.059640744612013186,-0.3432513131107453,-0.018922371417242845,-0.4202878357327805,0.159429181587861,0.23342761639846177,0.4239484509146294,0.128065582080664,0.31438078966722094,0.4091061700655235,0.29772361528115443,0.3741375413117196,-0.4505533668436741,0.3599639674695585,0.32903880147067543,-0.019954673655531052,0.20775356708832027,0.43825038744605693,0.3904506232067244,0.07915880031060374,-0.3404758191772659,-0.23273446924959906,0.061943809566320285,0.1301170532098267,0.19342436861967938,0.11946498809332828,-0.282181461034409,-0.09109660792095198,-0.1657542097594441,0.47823178504074315,-0.41337987241901086,-0.34084867714258493,-0.15437131071147162,0.2140847900627732,0.2141588303951472,0.15496199310653255,-0.01790627518742046,-0.00909636248487966,-0.4146714047706651,0.28536744081183746,0.21334663919049823,0.27819967244471583,0.08145022930637492,-0.019627673186670375,0.014682045340142724,0.24816081375001042,-0.03513577490483011,0.02658059599900542,0.10109228628187195,-0.019892164669341073,-0.13733044006130135,-0.49076648282247903,-0.27878939514349865,0.23307059863055435,-0.06498548908939061,0.17361929954234068,0.4419378578355605,0.010143798780420932,0.31872320166326423,0.3877592440034416,0.2544516802539049,0.22968336944381562,0.21388491949686553,-0.13846531983508248,0.36049551547486997,0.1964645790710497,-0.45549172728232656,0.3684948753276911,-0.22949208946197186,0.10708045183414247,0.319217139978205,0.05990650671598435,0.3431895383281623,-0.04196655381835519,-0.022113061021770387,0.07239069724424507,-0.3532371058852716,-0.4960146321370288,0.08716636458425608,0.38112037282175293,-0.4949573738335693,-0.25878079314557445,0.4638530906948899,-0.3702281341923894,-0.456781044632663,-0.014034928441701955,-0.34815747613248743,-0.33507115556014716,-0.44259341467564256,0.017933198757799824,0.07972179698954256,-0.39151855421847687,0.25467326054250083,0.34888389017173854,-0.2846672733211564,-0.17070960800187723,-0.21909195342381804,0.034276894057388305,0.13555310268079218,0.21441823154422862,0.10780915297924984,0.2110029062563155,0.37792041561355305,0.43533157811215656,0.48549495981674695,-0.012183966024869264,0.45473358031430966,-0.3408496736726814,-0.2050331187863047,0.1712315979732294,0.3756817956322177,0.26037245122023756,0.4145908022001181,-0.4213346024524682,0.3527546423961001,0.20062780701688412,0.11403281244024543,-0.2497930865472711,0.20614779126561794,0.18955684927527894,0.25065917167521995,-0.4240910335277929,0.0872789505764295,-0.06466160906260267,0.33685030479638495,-0.013129715952644004,-0.23045142583368403,-0.2986944399462048,-0.25697941080954234,0.18504446611154882,-0.47513778593335704,0.2694832859933742,-0.5025825379116217,0.20732209284344855,0.09942101198818598,-0.09152728618071726,-0.28543660049208464,0.3276125133926676,0.04425090761248851,-0.2688908209253579,0.4771012725406049,-0.08467480142091362,0.005568151931429826,0.22381339699390787,-0.3436421944148591,-0.15175346541874501,0.21717805416505234,0.16779068005579797,0.16374810536952536,0.1509083866100911,0.10659597619561062,0.1698144847784079,0.4235325680966236,0.44872686805209594,0.5893390541670328,-0.30303686806031743,0.17240277133160886,0.10005946786453426,0.0012519542550873514,-0.07970165903737322,0.016510283648748878,-0.21781011777553103,0.16715644592766105,-0.031037699268317676,-0.018173178437345783,-0.4967501446958087,-0.4454574266482816,-0.017817985319618545,0.47644420925684133,0.2662425181239926,-0.37020910318517825,0.1903491091200204,-0.44664346443508157,0.2800791620790085,0.09427794552943262,0.20277683927165288,-0.1529522110618704,-0.17723717702503072,0.17083309504155242,0.07508700554444864,0.3059474987247238,-0.36841646939963263,0.3363914069746384,-0.03115775010117681,-0.29320650072085447,0.04464904542805221,0.42249123024794744,0.3807560160840189,-0.3247184229537821,-0.20399971693899085,-0.2208087493310402,0.3284550988963416,0.14505212843730952,0.17669531547067463,-0.4765395996419134,0.3220403079146586,-0.1935174460730988,-0.3580428453654042,-0.21651112666761796,0.10190041026914125,-0.314166172024027,0.45192994678478504,-0.17505286222069885,0.09928770042565285,-0.20043701638827924,-0.15413790906708505,0.42702008833385857,-0.6824658699995774,-0.25296814571860754,-0.4302554373055899,-0.33777765598137477,0.2281236739000124,0.26036643013982763,3.4412491487548414E-4,-0.1144011914477141,-0.11524683758227953,-0.27680514420593966,-0.19767581241102503,-0.4421328738458802,0.4768314224531124,-0.22306909105726458,0.3416135168565885,-0.3944840905865889,0.3693612628126924,0.11327670519444626,0.34930749748138373,0.27548050545808694,0.0756254101961713,0.15662831145385692,0.1966312372167878,-0.3970921361802767,0.46155032193903733,-0.26660086216970863,0.3418801214809176,-0.3104227164341298,-0.3547012182175859,-0.32758650906589915,0.33927588796846464,0.3053313347404366,-0.4125720199962531,-0.3571795345786924,-0.24499646720205584,-0.06491646727634635,-0.016533741335988606,-0.3678116024094757,0.1346885945511515,0.3908906035589508,-0.3282978617970521,-0.40942663148123515,-0.2321918398076276,-0.19985769295403832,-0.427819101473681,0.07754940309817833,-0.2900784757144568,-0.39037305520397086,-0.013802325274270352,-0.2194790948904517,0.36136192395213634,0.13064639401757955,-0.23546684342772656,0.44953401505806134,-0.5853050421675029,-0.4215139092234947,-0.37964415679368224,-0.1154466612775506,0.3439580114033405,0.09471689227077243,-0.22370285519920485,0.45172044450212934,0.2014769811847662,0.2821962155821709,-0.10787553439143939,0.37008565046145153,0.08802428932675974,-0.39424654140385007,-0.15960141809027895,-0.1945717649342027,0.2403028018377812,6.41499163817949E-4,0.23887291881223388,-0.45780225738303437,-0.266337302125886,-0.21729547592926438,-0.19287550697989156,0.328386462836513,-0.08766134340602723,-0.2033948892252827,0.1761022774533946,0.3921229016417254,-0.23076944690908147,-0.08399638438626846,-0.5496721084202202,-0.35994012734102415,0.30437051625189826,0.13053679470214846,0.7342540425270765,9.392100283366042E-4,-0.19734050770490766,-0.20964678050363356,0.2951253301815197,0.4837925330883793,0.41393676226354603,0.024681241791533873,-0.2693372147702744,0.29908084501269805,0.16377568670096299,-0.4890900351378945,0.17096482878714,-0.1520674006000307,0.4167722578456533,-0.24122848747181125,-0.03289816841075442,0.03238053772980147,-0.25803768921265685,0.2551136468840789,-0.2777939207082293,0.6350772139903179,-0.08169553084130868,0.1790238752910994,0.30207300155220995,-0.2873163546485365,-0.10628100996554703,-0.008521476272864387,0.18056363486182928,0.2780849857510607,-0.024043745148028005,0.03189191236602854,0.06420184124395438,-0.1585619526678326,0.21560610811576691,0.43476194254057465,-0.09612068553798758,0.13266752241443713,-0.14578338038092054,-0.1855306099744961,-0.2424526456695855,0.4647005905454131,0.18243297243487827,0.35052532343942194,-0.238856430389758,0.09677312436101564,-0.4617107068177511,0.00514035330820279,0.573259464972096,0.3984706243213578,-0.19020911573680452,-0.26240703934570536,0.08915705321741406,0.6701586403866748,0.06606969875827952,0.25873634872984574,-0.3730262548099739,0.4574383094616789,0.40142802695492386,0.05596424168894054,0.44794223008506834,0.007416571944369102,-0.28842088993609055,0.36079110993437036,-0.2601143195356459,-0.06684812000595575,0.36799576682564583,-0.3840405861478625,-0.01779931155346126,0.38341307331346686,0.11806253178037665,0.3144549748995615,0.3491118448617721,0.429588450437694,-0.255834386093622,-0.0764968139571041,0.27328402155755327,-0.16939314571287503,0.11978453523871872,-0.17086187179050205,0.24361948990554977,0.03160252304451512,0.22873029913816115,-0.10008828357135557,-0.11975907734903163,-0.04897143338766231,0.5380670012821098,-0.21675904746246383,0.21546808602915216,0.23871497326374483,0.13269021711440282,-0.27690380161602934,0.2913435977641964,0.3549669913616379,-0.1593963500392197,0.145634856661354,-0.08301445965326792,0.09151022094338937,-0.12991626287670546,-0.1033563015343836,0.1889585605031857,0.3964087771872323,0.054835822873018025,0.19915540683683566,0.26675936039921394,0.331451956433871,-0.30724327292153925,0.019662172012574124,-0.3157265430256075,-0.42995256020191225,-0.1880247190150598,0.13405944286736998,-0.0172244972074679,0.21615269384076882,-0.25603647179890543,-0.21934729733626762,0.022645542250794556,0.20038389777966986,-0.040839595241115245,0.016556109535899477,-0.4116517839990109,0.42653470511801284,0.023142168714674782,0.4703981838572592,-0.28919063059165223,0.3288983568980737,0.21220957508261026,0.1361173400450003,0.37375621549272375,0.5145937662943673,0.5189228286895737,0.013479708006985322,0.4335823743379131,0.406253938322112,0.18211327434244168,0.45919654831591106,-0.023167872072082134,0.20054349383450565,0.17202721908624619,-0.39959165541002484,0.34089826351864405,0.09887424567246648,-0.06768312959370108,-0.04235132038629756,0.4257133124784509,-0.14354217123285817,0.13670863523564555,-0.3296067678055307,-0.1496013338902179,0.013931437617394016,0.014216700009894612,-0.45099185178932166,-0.22576427086877907,-0.2714554757565529,0.12135512639198615,0.21052436132551414,-0.2814850210029499,0.04473316450051666,0.5949595633385181,-0.06801185825425395,-0.0982397863941242,-0.146570831913038,-0.10682518502766673,0.36007134399510154,-0.1610581205070089,0.06629925750345017,-0.455549070070954,0.23838479002770843,-0.06721080886050443,-0.49384618088510107,0.23605690806815183,-0.039777066295370735,-0.44733450900295224,-0.3897370785119335,0.461867335854818,0.2286171487535632,0.01304753413698101,-0.09552240655431654,0.08820003589194281,0.1209979770248723,0.12476834487070393,-0.3196611148953035,-0.3327549215904605,-0.13368823600264287,0.23180831062637253,0.6969015411264766,0.25299029268036805,0.28127364970838953,0.8095830088654722,-0.20016486356436133,-0.18032807584288002,0.42034238233729526,0.16894592222550056,0.05503392061705346,0.08843391243539889,-0.14980801957644696,-0.14815212081421297,-0.14917787895091766,-0.03506488521057848,-0.2256804836289459,-0.17261070903200443,-0.06023738995128961,-0.07801557963274165,-0.37717252648155997,0.020493101371904632,0.12728545527730029,0.017908648893762535,0.18839586775464784,-0.03438448887436767,-0.2070730368195351,0.4214663255450624,-0.3474990224662661,-0.2315821913225883,0.2753813746504835,0.3647019639722375,-0.2071161309330804,0.22751378671688646,0.48926135590249487,0.13357826226159178,0.039638540948882514,0.26207960956855686,-0.29392111059505466,0.36774259093286465,-0.11678860891673717,0.03957993353718198,0.014947769425091488,0.18172550902905538,0.1650053895009163,0.2753942684632134,0.05000969513826017,-0.5107364239380002,-0.06221827843138655,0.4730726750943103,0.08580838983920513,0.38055241991713173,-0.046055009277113236,0.048439219926024915,-0.4502723814128176,-0.3451384088131338,-0.29341045204246763,-0.5039411649918532,-0.5456452630156784,-0.09774896599395581,0.2969266434797066,0.00762262735851648,0.059176210049417206,0.31796466224959774,-0.4101315558071192,-0.04875014848316004,0.2870696845591503,0.45423179108368533,-0.030762631097841137,0.20683076770980016,-0.2061130910539864,0.22521505297571018,-0.4083527899214194,0.28222679200809025,-0.0658038999252358,-0.2615198551321872,-0.3092666104589975,0.45006149204425694,-0.12080837473591077,0.02038936734164909,0.3480140087021194,0.30845782147216566,-0.47592565290977606,-0.1382240106189936,0.45296054963331955,0.37210052047746467,-0.47244884248949737,-0.47248436088133816,0.23963082180431622,0.02535528779422282,0.4752626935616786,0.16446152381435372,-0.3818822775219247,-0.02965304447205293,0.006872027613276856,0.3714260356704661,-0.2930185408004514,0.45829799029362545,-0.0331983611942995,0.24396994742907474,-0.0224492107164867,0.1272431714002225,-0.19774076850676364,-0.2850712148152918,0.04317166877770239,-0.34662372683541887,-0.1652665894081612,0.11983689831629929,0.0890368691870016,-0.4877032346696011,0.3796373510190134,-0.23439908975039683,-0.027028166661738268,-0.2563586878927862,-0.2076293975914063,-0.17674044901154798,-0.017775622752380493,0.2707171365595148,-0.11312140779917228,-0.16620464286240277,-0.593427442069473,-0.5993175888829335,-0.02167572343461179,0.28737791610314045,0.15888543803813193,0.6378067538939727,0.3427072749890461,-0.14252910566388083,0.3630442492177771,0.012730508055679789,0.07363718925775861,0.4779603799138589,0.11198762522885353,0.43672810624759817,-0.23697783514715354,0.2028617815964907,0.320509424189769,0.262292253383595,-0.1622179600848429,0.15021485397789547,-0.7025278535840482,-0.015175252925917189,-0.42584921170150214,-0.48573544399888513,-0.5066123695767887,-0.5727044083920365,-0.027155866021197562,-0.20455700772639293,-0.33191116345683275,0.29503383703904557,-0.4380687562966669,-0.18320523172466693,0.0656600351955177,0.17162966576353272,0.16040060462257785,-0.1827362460339439,0.16161796589228464,0.0556064172097353,0.15023444953353027,-0.09501950741874457,-0.24435393189062127,-0.20253508044255275,-0.2196758348572635,-0.1397090146504828,0.08014802493965212,0.39613564289194303,0.4821958595542468,0.32244430459464335,-0.43113890683018674,0.2199713046962158,-0.15126604855431855,-0.08320454659885407,-0.5175946143984489,0.3787344248131008,0.4656968024121676,-0.12160414324137758,0.06560610472648812,0.23482765795401422,0.14754297476826958,0.5011831303377386,-0.22702930896753734,-0.40606378431173873,0.36020784649502224,0.22487313933452743,0.05014543591822654,-0.1963660456194113,0.4894154156251864,0.21873325567581303,-0.22462788963202596,0.014788415722289727,-0.28044697056575585,0.04625622317972533,-0.08630880538686692,-0.394030742222346,0.104499331305138,-0.019776570708843755,0.4221075442484893,-0.12003775195449204,0.37565683327735805,-0.4279231753410048,0.11489368302546106,-0.43410192638760997,-0.5778695365863631,0.2784102025306403,0.2968090097243446,0.42148326634040695,-0.06095119583577431,-0.41361548159418327,0.3860779264775451,0.00583942396647827,0.3056590390781446,0.23179575589199086,0.11576090614315626,0.24092082237230983,0.0406979583612036,0.16070038857258162,0.23643639365278457,0.3182265092949219,0.17166099720156813,0.44830501710514403,-0.2225684080906174,-0.2562751625225319,0.1785869152787719,0.23205770849290575,0.34744609788588887,-0.4558067525183649,-0.0736430619103082,-0.3160364489033197,0.047807188548720445,-0.26337674622542623,-0.33257425832671245,-0.2593015138294037,0.2724506885360624,-0.4497446663392313,0.4499199924175124,-0.06247299377666452,-0.41801175243788463,-0.48891430795285384,-0.2658749673090639,0.12529517528151823,0.07039812527416778,-0.062134570067570394,-0.28204344658819014,-0.03889607752544455,-0.2558632080661436,-0.2358129715694578,0.0635491335698738,-0.31921838624901544,-0.039126771801989424,-0.23840374974083856,-0.03410637127648186,-0.007609028772205706,-0.1057077094775778,-0.27745265681914455,0.2509647962954965,0.18849890527712054,0.15407247934758705,0.2616738313932202,-0.3837128849918713,-0.07290451829613967,-0.30978861489223086,0.3063927827138264,-0.03379529130021508,0.10112967652923421,-0.045121722535895636,-0.17987261895519602,-0.1374712099958031,0.37640866303202347,-0.48151977073375807,0.10725145872776065,0.0141290199893499,0.2650308143843848,-0.47099045916614124,0.3861136829808659]},{"biasWeight":0.16933520975651525,"noInputs":784,"delta":2.2431603559522107E-7,"weights":[-0.10809865485278058,-0.4976253144830445,0.4632976585160967,0.230260745466637,0.21180331213443682,-0.06370163493857894,0.20979259982856535,0.012520583455006062,0.2551400253149174,0.1515002800209908,-0.24982616986718487,-0.47850667433272764,-0.35598530736252487,-0.41873612047173026,-0.40409721542141286,0.04792487554626135,-0.10655190534290537,0.45412036493287355,0.4353013287299303,-0.39563098385990236,-0.0528942693476655,0.4442648147623812,-0.06954915625195368,-0.40150177859961045,-0.012273855778544673,0.4004533617425603,-0.33478869362691976,0.2417093919213762,-0.190487693749384,-0.293488090760608,0.33875156101345394,0.24469153843602587,-0.056931680414236796,0.17522069282834685,0.40542675883748747,0.028378941555557535,0.2830340593908771,-0.3677786227318004,-0.3754653593141465,-0.23827834155687433,0.18439079524832425,-0.49227389680442724,0.3997107547239584,0.024247124782570167,-0.1372357688239439,-0.17880915784690288,0.38464995869381435,-0.1913752512623671,0.4841038507621499,-0.08225161059653152,0.48722679129529356,-0.19585558778805767,0.43762726297459575,0.19507875511963357,0.4439018968549455,-0.23785359121993088,0.27885855745846255,-0.15447199331298,-0.009901812980211866,-0.3314506726678559,0.13651040867217257,0.3306688159550044,0.004544651244069331,0.12124923643385022,-0.31759619287868796,-0.12291296026135992,0.2531883594354046,0.16870928192461263,0.4898450584588182,-0.010961542596955164,0.09965881092436045,0.09669911464044145,0.14050572666564393,-0.23356773573118328,-0.2406408347131933,0.09697081648480789,0.44434586860598935,0.0544463501735557,-0.36788721377080613,-0.2592465918612158,0.012392995025547027,0.2572276110237187,-0.4268812431426723,-0.2850596560350014,-0.0322706225640248,-0.05538050033349118,-0.01787487377222774,-0.4949937834051876,0.3035843954599502,0.14211523958318562,0.4162528743631283,-0.27278097249092,-0.4252523301088074,-0.3871268018272075,-0.5104390597902899,-0.1847035048647873,-0.3617180339401411,-0.0384443668993149,-0.5137931779609971,0.2576508099285538,-0.2557369498665706,0.46324897037893276,-0.28567059497169905,0.07092673928884002,0.0811882837809618,-0.39400820228836225,0.27504138211934837,0.44469336776142104,0.3327657632730122,-0.2560089430922996,-0.15275890960068128,-0.3356392226221001,0.130199419344333,-0.2880582904157426,0.3691619446702208,-0.16219105771958253,0.05999921293329402,0.3563529785587787,0.40129368950105776,0.08848000964988373,0.45734988396792203,0.1079706973421776,0.5048303690584444,-0.17134236440013467,-0.0055821626198293344,0.06887777847599752,-0.14808910832902972,0.2778000522040111,-0.27071358318900124,0.04773280873845462,-0.1554563719738857,0.23658290370784893,-0.16364600656447387,0.290153422915348,-0.24298233746874837,0.07388420474603065,-0.16757544687602866,0.14568607779431475,0.13691731735963109,-0.49207266125524307,0.12973493222913335,0.1790986699172985,-0.3368201598447672,0.3794353704993898,0.025528447553383682,0.2844513167853193,0.14460208000050692,-0.3221660526884524,0.525317452374786,-0.0440115756117738,0.3147890088190375,0.3069820872489134,0.41265216066806903,-0.018161959218041458,0.26080509664049356,-0.14110250998709828,-0.20334948876940148,0.035373795917237785,0.3843608500210107,-0.1234991951206361,-0.10070946359485444,0.4095281801895114,-0.1280727824411584,0.017650743468427606,-0.43632052186656495,0.33719500070199915,0.08021934334631386,-0.03416293403635884,-0.17423863520065463,0.4665158031350486,-0.3857182430736942,0.039473744143976086,-0.3403113239229532,0.31811953447366975,-0.24923445739953767,-0.03184548358028244,0.0349824409798927,-0.09978815751154782,0.16425014732330873,-0.22605658363970738,-0.46426265509369957,-0.29521941702338095,0.054759852410458436,-0.7358565493995056,-0.5277341897413168,-0.32386293563788576,-0.0674710914182898,-0.42579719383669856,0.1692804471198633,-0.28627093145228816,0.03072168511373036,0.38906637373628916,0.4497982007337701,-0.09419339776876207,0.24896347679804465,0.21897151458461206,-0.07514158384738523,0.2804760908405288,-0.12503677284572268,-0.25724701841013825,-0.032105215329363564,0.5482219150012703,-0.11363038815087684,0.06514434680753815,-0.2714008002762443,-0.24271992692749045,-0.2459941285752438,-0.042647525743883745,0.3916132982330874,-0.40865781483873,0.2055369672671919,0.12468879417505661,-0.12181622163820922,-0.12685672638557216,-0.1378155259932771,-0.3007533485824199,0.49128662568042086,0.0577028850295327,0.14621157467549484,0.528481557285339,0.4137079036736019,-0.36574046328416676,0.2417188392719084,0.34865099599652394,-0.011431761548325259,0.2847340225409729,0.4190578619812351,-0.3866251908517151,0.13712810839664152,0.12812671030547904,0.51207000946175,0.3585035912522764,-0.4168694864312117,0.104342774897355,0.40891985975248873,0.24701900146810163,-0.29796034842373414,-0.06184673229242237,-0.0745489759613964,0.01612912427166851,0.4315940726848904,0.046807246758771556,0.3064154310648047,0.39420384264994107,0.5133948478158692,0.4119286054864031,0.24602809557652375,-0.21248646825922882,0.32572325596552104,-0.06331695097596472,0.26247382674942976,-0.4669381147110353,-0.025626436673960917,0.3695035180550543,0.4475623466106084,0.17387099776935683,-0.37268061772725786,-0.2326667475211353,-0.3912914132718618,0.10779738422065786,-0.48817755511355493,-0.20113148112178741,0.2872109199510127,0.31620644620961613,0.49416320156717036,-0.11564402099482458,-0.4545302936624761,0.03526785017070678,0.2601055656770327,-0.37095055302507335,0.48104006136776295,0.25451905539921216,-0.23320052334928015,-0.2782497241832759,-0.08989449181899015,0.19296032892044065,-0.3122175861582868,0.3542216982763839,-0.2241455964904031,0.1007899231621775,-0.03527787396217308,0.06424954447160658,-0.49486215807706824,0.33169725165317393,-0.17962764094623723,0.044504998745301345,0.45544519286465684,-0.2402592392496324,-0.003008171720461565,0.13851118347043154,-0.2891658083023374,-0.014808992117756818,-0.022536319147002628,-0.5561456581160469,0.19072459084199012,0.42641516416645675,-0.2627871734727544,-0.05044825563040848,0.24677759644814998,0.054055097103777226,-0.6090944738220225,-0.5304278976634492,-0.5065051150788794,-0.3720045094912619,0.033828802830085,0.16875445999530625,-0.18746229515411328,-0.46884897147780147,0.11104468572763626,-0.09190449572445802,-0.1945887587048475,0.302090364242071,0.07517727179503476,0.19933930156281357,0.26103875006807764,-0.5103474058571104,0.058707441173311614,-0.03287275051230313,-0.17671030398480775,0.43709170486364457,-0.027336440870059486,-0.07879590347093478,-0.05434966730971539,-0.03751571383823345,-0.021454746603658845,0.17291241339012764,0.2692804569508564,0.15683656465108176,0.2581849649181505,-0.3685417078653902,0.08508085179045448,0.026909458617573826,-0.41064543154486366,0.3288575796467803,-0.43319570310734246,0.3240184486972938,-0.21446618293878272,-0.49720837629603576,0.2992040749714029,-0.09291209442991866,0.20726635151708256,0.2224147530240944,-0.3959911801924913,-0.05236763054947792,0.451198911585173,-0.15039834480009873,0.5871689326278028,-0.29626757244055607,-0.14484163765807156,-0.084925404166261,-0.05811962607217644,-0.07009978881207117,-0.21640368484118735,0.04620125984193076,0.34129593383607215,-0.31565569058718695,0.1358816952296051,-0.6832262631000197,-0.46945169242450335,-0.38519677099057636,-0.32914042313334374,-0.4745154567210859,-0.3707649822981649,0.33860298009141987,0.4930211323591859,0.22807211888007428,0.24969679213318396,0.18249683595184785,0.3358290825791053,-0.3103080011461683,0.284467848924192,0.18098163143060583,-0.03576796938761459,0.13437750936059809,0.2822299312761035,0.35755571025746824,0.25234717032448256,0.43001754570262385,0.03878154460773471,0.06867279830606256,0.07529757063077146,-0.297177970557781,-0.0876344079688196,-0.34961872524898824,-0.2106458669849572,-0.028621803040820296,-0.22818986510912942,0.41470436657831,-0.024712442847814795,0.45734382739476803,0.014468043121619534,-0.278849057792103,0.24861098345559118,0.19786178566637214,-0.432637096039994,0.2853132344949806,0.18100898444816313,-0.25687988293080405,0.40940343598763407,-0.31700079025012556,0.13772246457189216,-0.023362703513963048,0.08908872246457152,0.04222045918846114,0.509496690869783,-0.15722856731547152,-0.3302232784678673,-0.2865900690541269,0.3057780128074875,0.650537580093341,0.537564683544331,0.044121942890585096,-0.04762585756141182,-0.3496752819912722,-0.30684702491562066,-0.3373012948732943,-0.4622742925701244,0.4551050267656141,-0.14730734502731124,-0.09421765608681643,-0.12620127912410217,-0.021824286628579714,0.0750370152911316,0.4609267909153484,-0.19022621700086376,-0.32396126500814265,-0.3114457729741338,0.44230860775243525,0.1698919072448376,0.24262400234355802,0.19843061766104833,0.4393212813275521,-0.1347031039242429,0.04946777494415082,0.22943310068990871,0.24502182028831687,0.6090547384136213,0.6774356020526021,0.5944558139385069,-0.1282220131478868,0.25127207630382337,-0.27578407047923037,-0.47259879759729817,-0.5382075186418152,0.40827803076438896,0.4438911911817808,-0.4707606987507328,0.38069940647936995,0.004622401840293833,-0.12631177202897959,0.27671863113078343,0.4486543388733043,-0.48505141676214036,0.012808330134593014,-0.26594181497424263,0.13170207011002308,0.19943768974621587,-0.4424302677132333,-0.16697609204697253,0.21920601213211816,0.29835299330460047,0.1753764909081763,-0.08896232449591997,0.17935603747238188,0.20420311312916717,0.21686010810576956,0.07900329453121417,-0.1798485517378887,-0.25020326619904215,-0.5141706011992513,-0.43398122358856767,-0.5281985321040266,-0.49126783575610933,-0.3289360983980383,-0.08705137182832608,-0.03624663705061404,-0.4600334394621487,0.21983029827189637,-0.14030498496764132,0.21733954665601576,0.2518634174409755,0.5050888636787386,0.275023837045572,0.2969670426167007,-0.36700028259891226,-0.17045486310321042,-0.3643988174399455,-0.39989265066920204,-0.3315146043988449,0.1550215544821238,-0.2942367642971684,0.3401339086104182,0.13342392480265403,-0.2005955148188602,0.33775861769946397,0.4159827305617157,0.28689175908936854,0.03344360520435845,-0.4023270962891115,-0.07600012069610684,0.16718677706298554,-0.375223805728749,-0.2984392768161361,0.22686574435044526,-0.21354261485529202,0.09090737086679135,-0.09340933061931575,0.1352976226512495,0.17626613831227114,0.38783528305707765,-0.06952336812638427,0.2231334287016508,-0.07941564977407359,0.24377937459983576,0.04035999981746179,-0.24515357127916576,-0.36121706175769863,-0.3506333068625537,-0.38268201955815345,-0.46302796270591756,-0.3050355331236224,0.15523307690176893,-0.3394866863554843,-0.07504348206991542,0.259465510827414,-0.2848053281375078,0.4180130294461053,-0.2475594551534946,-0.011275130020392396,-0.036827940683757054,-0.3629332067784289,0.44805735739608676,-0.3215413125573001,0.15211232423444943,0.5100990005209692,-0.19873806847307982,0.46002503134750455,-0.39556961740954233,-0.24915274231619736,0.01974355626611939,-0.2736864235096234,-0.13691224617045944,0.19738044701208485,-0.6510307218519399,-0.5053721611988272,-0.24639341645591673,0.30838082401078576,-0.1543882558831835,0.4000080151834872,-0.009431908059016014,-0.28109614308205483,-0.15287492166154165,0.15510004538229596,-0.4470616650855863,0.014760254754837884,0.12926730261675873,-0.4113916873870069,0.12302062863638419,0.08680561431809443,0.05284685069873041,0.16749884804641513,0.0444411724437046,-0.27076291929734814,0.01640809617191779,-0.27440906089212774,0.5963332505075579,-0.29904883920624636,0.33799886237273863,-0.24849649230104376,-0.22680450297889104,-0.0878775590229826,0.3043180172191607,0.027620286960796398,-0.329282579272106,0.10733984810686391,-0.32615607571802957,0.2565961006546359,-0.07383196517329818,0.4561902055873261,0.4457355900214132,-0.3769580235595423,0.1275058289839093,0.11198777690591107,-0.053661385034342424,0.3051813578372641,0.3471478182486175,0.38506078149854756,-0.06646221049950052,0.18502840190503766,-0.30359823181399104,0.2990602489630373,-0.31992371119980895,-0.1507882972215698,-0.36348753384366433,0.4172591794972733,-0.3337583298842919,0.5654133144493787,0.04178832686787039,-0.07839314994269149,-0.13882210482175023,-0.22197530351895928,-0.49136396655170517,0.15669347784909457,0.06685745518604871,0.4708678117006626,0.3451052212106696,0.08721759128324326,0.4283442325389489,0.2073744469423139,0.17643362465637308,0.3996945325631874,0.4714243760671161,0.009586701584213932,0.2480338969123513,0.20242697314058486,0.30542159706055805,0.48572903043936855,0.30503896225606275,0.09680830816206187,-0.18626625205149583,-0.014733102746897115,0.49986429392956355,0.18041471259587483,-0.47149401737722535,0.05681946481573718,0.24812611872554816,0.45521978640058774,-0.46526310559972267,0.0920560689669044,-0.5554205376138179,-0.5710338921638906,-0.03614784162997165,0.2324858708352942,0.3970563398730974,-0.32523852601189157,-0.30465667191699186,0.22226049901794223,-0.10188657420973939,-0.09536879296038962,-0.3963483309075713,-0.08718023194348296,-0.28670623354099817,0.3278979608143482,-0.12681876536995584,0.17566479599735763,0.4211819224049701,-0.4927172203346998,-0.43310048640721077,0.12271843777335997,-0.25837416030810023,-0.1441555607099603,0.025344208313179878,-0.5502716294795766,-0.36779540844629915,-0.026343556006322783,0.2074833987024949,0.15670815636961177,-0.14814416648209905,-0.5358590916477092,-0.0650270592262138,0.08005965206981454,-0.32025854965329686,0.08143059199914963,0.06608395527468892,-0.314963546824383,0.4468096619378537,0.33505878026622127,-0.17270996396427682,-0.32351633284100356,-0.31848526673819555,0.3771109061122735,0.03878815428446947,-0.17961367427162633,-0.3900473747375248,-0.40934274333366927,0.33190614432773935,-0.46516539092175035,0.1796348854526508,0.44890870483459616,-0.40737845599331385,0.3041200069415133,0.22314584945312216,0.16189056311567668,-0.1668173879337302,-0.028819266544612337,0.6101769579286509,0.3975235495805592,0.2755736528724725,-0.14748020954063346,0.2392330903174663,0.2821528456880547,-0.04485181411489311,-0.3525065763013854,0.3407169307056983,-0.4567753860482394,-0.47054456161808544,-0.2559658430011741,-0.21491448444423722,0.10789852314932824,-0.31605666829581325,-0.28733015459426214,-0.4625429071773399,0.2675840485705824,0.32197018189801496,-0.43724136535615643,-0.14878308228412918,0.4587307831756928,-0.2235470584074719,-0.3580579926998952,-0.24511806889125162,0.3618115620956204,-0.09561250235332126,-0.22098636858173465,0.31174620846134904,0.13809239943310306,-0.24336877372590784,-0.2061659519591177,-0.25032831237614117,-0.14132190219814453,0.16015916624887208,0.07364817407777667,-0.06685029397725406,0.26082125612507046,0.4562819585191036,0.35450756950804263,-0.407882482283934,0.4301070497761138,-0.2943793910175839,0.15789227541906903,0.058213792892297,0.3572245669987315,0.1360079357398889,-0.33483477638546755,-0.26862120451110283,0.34230664576768144,-0.0632325191602734,-0.3454469807137695,-0.30417333960059617,0.47470868643946057,0.273886019769354,0.25876154946932634,0.21152983605910913,-0.23886154456410183,0.336177584913949,-0.44982089939765935,-0.1443019332314041,0.3832660776001977,0.3605610892919416,0.2706039212319791,-0.4673378039378665,0.05103238174455216,-0.001600137170537197,0.030165036092585473,-0.1500769042265433,-0.4325258920102889,-0.027471657209753086,-0.4928851392888086,-0.054743432802256575,0.36388950054679925,-0.3154806613595723,-0.41487542845432435,0.14233114833379712,-0.19361747222315073,-0.20853227514246908,0.23399490370947207,-0.1913994584169405,-0.3971166233235617,-0.37604451757276913,-0.017441685702426907,-0.3560421079050863,-0.4082084020301743,-0.16886922892327483,0.027741920094893735,-0.19344321649603446,0.054511499458190116,0.27734623630541133,0.14133968171961886,0.32664479511595224,-0.1047056871850166,0.20676923172983608,-0.1342395355255781,-0.2157050973404666,0.3569966428905179,-0.2966862859412427]},{"biasWeight":-0.5651539950762278,"noInputs":784,"delta":7.171940747129821E-15,"weights":[0.31598191038956225,0.42281025917279147,0.23265744797971044,0.08945015008765245,0.35249083189200614,-0.308286770846514,-0.34271131803083377,-0.37533208538886165,0.17294798452358096,0.3093382875899976,-0.06198032165383305,0.3504994003563733,-0.23961387555790636,0.48614909787367644,0.011133929964296407,-0.36821283742285504,-0.20189296334275253,0.24126046514937527,0.00709071403171635,-0.12757403751924845,-0.09901162251871198,0.27293441176682065,0.05971909496255512,0.45486902173847166,0.337014573919843,0.2757285061385668,0.4440910298954486,-0.3906049179682539,-0.4383061268110925,-0.40053135675745155,-0.32322894043943906,0.017000035015339643,-0.13834319990158328,-0.12333591107893438,-0.486102174092914,0.13434683726107766,0.28361403900634785,0.13267685850185063,0.49056080825504533,0.0700277990768462,-0.18901562135928185,-0.0630958418067109,-0.24179234698268556,0.33747857526233815,0.44190135488075355,0.3534267429005562,-0.49479204739248706,-0.028914504468759872,0.42882150784756246,-0.1939776546606954,0.14486920918591362,0.2740104643583613,0.41725309300527513,0.4851375468565192,-0.15661588931705006,-0.01274635169404581,-0.3125682298112771,-0.4066418500404554,-0.36952359646991983,-0.2774251782009066,-0.04881672047773111,-0.4488879690046337,-0.4638034168610996,0.33539035075634216,0.43502802725622186,0.2661890488333164,-0.25275001134962516,0.3207949184334252,0.08388839952600248,-0.32554335693571324,-0.6398682929056658,0.27344258113444303,-0.27611473578831647,0.35882101621737056,-0.07343545597416873,0.32528232910783944,0.24608564662178944,0.22978519554592536,0.37815085688174543,-0.06469995077852264,-0.2214747503154464,-0.02290076623284898,0.28682965011974926,0.34960121958677315,0.41104978383232893,-0.1527553847144516,0.16678551056789925,-0.08886771680130823,0.4288597460213035,0.38427995063068954,-0.06786341791497144,-0.34689168278804133,0.4006082656233348,0.2622491509470919,-0.16518497873797228,-0.30281960931343055,-0.061751294343119593,0.008472517467452405,-0.4268736640295771,-0.2526778506453181,-0.33851299686025327,-0.1646554574427204,-0.2589554639650887,-0.41170211065724716,-0.42485602408825796,0.286177365522339,-0.2830614709868889,-0.09697448501681383,0.01274464130177888,-0.2067030566624587,0.1619972419656186,-0.3846345703760372,0.15664931341805033,0.10693966821696388,0.17707562015201517,0.3541099612601166,0.19090396449582692,0.2985099449574774,-0.38845358922642625,0.4738050649584062,0.25145591773712483,-0.18583666755443473,0.3416161049923783,0.31536520955878017,0.039863161157372935,-0.5955095053829371,-0.05553466981496667,-0.12211836229236805,0.45484990325497326,-0.4303102636537918,0.30527693686519464,0.28753492956058263,-0.10519080742243103,0.22565441205170184,-0.23246437170343223,0.05607670635359696,0.37655907330133165,0.27124626076553804,0.07543879955346544,0.039426627261081704,0.2073482767137781,-0.3857039672181929,0.26569285714474844,0.07046645948872632,0.25960667982482166,-0.1451968536264122,-0.49608912650072534,0.41028599645903224,-0.17772205423472529,-0.4327646493206434,-0.41548139921926436,-0.5002835002414153,0.20553555293430673,0.23664354350977632,-0.5157262911113082,-0.17671746332180022,0.0738847240884208,0.01770058856793292,-0.36866304094875,0.2597472161588022,0.2470707636772243,-0.3563198915751689,-0.46049692914749846,-0.16965970833071203,-0.27155266538930833,0.31966292705184574,-0.26041159253738966,-0.1369173985838087,-0.24399531583422163,0.3475782019984175,-0.09925969514472777,0.23962299207031135,0.324324577469033,-0.35449220098390893,-0.18187134650052547,0.45254850781401096,-0.20214746621018131,-0.025616995874256226,-0.4484829734868859,0.3921865869882753,-0.2427328656030424,-0.5151932753451854,-0.06394689933650262,-0.8407041311402308,-0.2142819999271533,-0.3379528577204661,-0.4265963380521181,0.13914487110989684,0.17015991323665317,0.256984751120587,-0.2430226481602314,0.5117020777666442,-0.27725120292902516,0.07802088662628523,0.48554110369498604,0.19732881487275078,0.40989361376921973,0.04855846712606049,0.18710917311345387,0.3912003052374637,-0.3741719253581748,-0.43508080665281407,-0.3186985249079761,-0.01876524726487533,-0.4012666639041582,-0.017500029156911626,-0.1549215865404601,0.04198036140260546,-0.3111639529485436,-0.25349533580682587,-0.5682683137049391,-0.9034945870647502,-0.293146115040094,-0.14427760743766097,-0.5868619706602269,-0.4550461306627165,-0.0811483500651653,-0.343221178984638,0.33443787098206107,-0.4997886333717029,0.1381622700077049,-0.0075829257546059705,0.43906187357062915,0.43640949589692013,-0.13352919038637612,0.19463243820628262,0.11025626097640204,0.25678162303342833,-0.2684688439987605,0.34479234779087514,-0.357960761027418,-0.0833775528372358,0.25906027759374517,0.06064263446386911,-0.4722849027679891,0.09502341307894405,-0.1963149123079628,-0.645820323150206,-0.3985915425405634,0.12022123604368233,-0.5997047551678095,-0.6059342338950003,-0.015008192264075066,-0.13386832666449966,-0.15582394653379295,0.06101431679799511,-0.015813282564236426,0.11674521591484599,-0.07257442761449606,-0.1458105725886314,0.36801554063095954,0.3086641873878925,-0.01776221474333206,-0.4130556405210357,0.4569660836191621,0.37341069186103854,0.09890184719865035,-0.14936089736148395,0.3325857554130312,0.16354216628647117,-0.14779216636458672,-0.2514588799657862,-0.3966484469377188,-0.38285127735639896,-0.2994971240915441,-0.35878998743668283,-0.3464204686586848,-0.3486385113290404,-0.13211122603777703,-0.4750434279773323,-0.6537200756520584,0.07114868038356581,-0.5951932775716023,0.026598073310075177,-0.13850019582120998,-0.19717191359515032,-0.14482186000202546,0.16889790850902373,-0.2100682820369124,0.07501562632524539,0.30535679614657063,-0.16804246818883162,-0.156465338564716,-0.1111035542518281,0.41141923441376244,0.21542626721527156,-0.3423034270642369,-0.47599466629897436,-0.01673312629029167,0.36334369977950903,-0.1843317276034838,0.05159078671562915,0.3771981276770935,-0.05436120513601414,0.19099291202375424,-0.39142817712757344,-0.5077808203221582,0.22971036154573396,-0.29846360690045687,-0.6763067357283368,-0.10276959526212255,-0.3849588823813875,-0.04136914622975467,0.11761461446072584,-0.5045011583055693,0.3272227747699925,-0.04165678154489705,0.3825145752252844,0.3350468648127667,-0.30589986371166755,-0.14985614198755726,-0.32255545087567183,-0.27931201819793483,0.18347007507038837,-0.4994294407837573,0.20687098027123546,0.4147022972258145,0.04349033065666887,-0.2831358300067096,-0.2390912649261599,0.23382285406022132,0.3619473415106691,-0.28549109437060627,-0.4753187133665327,-0.00797534654715735,-0.17271310430165265,-0.3225132047029085,0.05436621720056376,-0.31022379574748116,-0.3047540676862539,-0.2967808145748894,0.3475493600255616,-0.2349796601278113,0.11243124950859625,0.2664703509300279,-0.12882234247121094,0.3069243623894843,0.09106290067900824,0.3149374287242317,-0.43203663359763084,-0.40404975655718445,-0.2611395770884261,0.4025357719116564,0.17654802592107113,0.5148425009826354,0.5104394404513889,0.49749837431190036,0.6431722316859293,0.23199098706287083,-0.181920012213022,0.09923448987506227,-0.03586590205536948,0.7841351710270279,0.4068119958536522,-0.47885597465751245,0.28862190981964764,0.45907955963918007,0.30509752288382275,0.3967671445492786,0.09843373801812447,-0.16596763037863407,0.11997499688316124,0.2936864866972152,-0.18307544434722245,0.1833350199479512,0.39101930885816605,-0.15338731969168162,-0.10548568235771583,0.3402549548303055,0.5594931536950016,-0.3941952174594161,0.07877172993797198,0.6758596899713797,0.3377783732137593,-0.09845777636317252,0.28976277058080296,0.40108733815735537,0.2591290516715224,-0.2343383076523818,0.26106845917928834,0.027753532233171865,0.33733519203842527,0.29659511803820343,0.404754893044954,0.10941022399358076,0.19227861061639848,0.23378785071588737,0.06676246112279817,-0.40733158050161694,0.27472930123901274,-0.13316764927395408,-0.1282584391163003,-0.2486433932699721,-0.34751468833687793,-0.3572834718041725,0.04387183673667938,-0.04643810831333979,-0.15051811704097795,-0.24869282521436017,-0.2629315029527075,0.2159441769472184,0.1244857180584995,0.6748979923907649,-0.01083032801787798,0.38220148627837747,-0.3818336755998005,0.09761959802897992,0.3588662195983665,-0.0724552461099939,-0.3103703456083312,-0.18284321532724773,0.5006226025093674,0.34682973194985334,-0.21210231776838442,0.5447213707099648,-0.06197540582448554,0.15290722609492738,-0.1297131943943221,0.10092268336207588,0.3342680176597056,0.2985348813558565,-0.4772697457124617,0.3171581531941685,-0.18164878735991064,0.14425435314044593,-0.46546674115527115,-0.4485647795775081,-0.5501560972569274,-0.12086965326173882,0.22051052213563108,0.530030569164932,0.04938993106195339,0.04927670050853494,-0.32252364548342527,-0.4325407725942522,-0.5316134824201668,0.3708531868525048,-0.3286956165464779,0.17101789082627886,-0.10132765444233671,0.12778844443232062,0.3536679261270562,0.27428807715028697,0.05331440183731183,-0.30365853546480176,-0.4230665774993602,-0.21192332713081374,0.3498234825036247,0.24754730792670265,-0.3204039087435906,-0.08890878663263613,0.49264623146458525,0.18468379845143829,0.08197944180741039,-0.06879304509762203,0.23039500237632415,-0.16017372656382445,-0.06679986592899616,0.1795044742319045,0.2818595905835705,0.1951939708559357,0.0389304583828848,0.6562108290417566,0.10140999849876757,0.4446563017248073,0.2355574941807742,-0.5578105692349202,0.362350935335964,0.22003343848012066,0.5814069025767545,0.10838575208476012,0.3699274721997036,0.18520565432816224,0.45241726815188976,-0.2835505461594433,-0.0015370669456998831,0.3858731569518583,-0.035722457260532026,0.31455219451291727,-0.4471759990824303,-0.1252359579709246,-0.25900105770708254,0.22092984687242279,-0.1344754896101455,0.2395563280111414,0.011940072287702214,-0.07019072986021362,0.17295644013209355,-0.13131496578276824,-0.3184925657837931,-0.07000616433487018,-0.19092654670848913,0.31750471372665645,0.25229223689021407,0.30628803458046266,0.09922564474051807,0.4185423370242053,0.24461374656128013,-0.20986838523864101,-0.2952348638779003,0.20921104127406698,-0.3955782316049664,0.2522155622670174,0.38296809553420474,-0.0748200553972257,-0.2909389703967734,0.25289484958288555,-0.12083739568672937,0.1120865602776713,0.10972867193524699,0.021270953842118846,0.0703054928294487,2.75298815464258E-4,0.4652120318740205,0.1934161891966853,0.06825345133063294,0.37103071750031225,0.20170559818756342,0.3659195351169963,0.35053222678859,0.1320081154070923,0.14641671931545985,-0.1461915775312249,0.5020577843945278,-0.2635554655567487,0.12757978940216075,-0.5660830727111757,-0.5745749650409425,0.20379981772363095,-0.40805919926876416,-0.17509266036190238,-0.4242468785535347,-0.4324797538295231,0.2142152922950088,-0.23670150731725056,-0.4050568283379966,-0.4369315242464943,0.10555301551074397,-0.007525536502477223,-0.05277796265840375,-0.045483196288650676,-0.19498192175974385,-0.06943603071668537,0.06956827406570369,0.15274671859645036,-0.17574677829669794,0.04093773756254537,-0.13379078895231777,-0.25388716531685596,-0.22011387286848058,0.023271027754416734,-0.1684812051293712,0.10854410926573041,-0.01760709988825314,-0.3298858063606546,0.07972065923385462,-0.04224153197425021,-0.34900463901259604,0.1325095790836026,-0.3755167441215864,0.04156498240219908,-0.12782782375544166,-0.30130388158353927,-0.23264439318599325,0.1448804312022183,0.17349597982519901,0.1448290011375311,-0.5556495311321332,-0.4546039380677827,-0.2832569188625038,0.16676695003359757,-0.3830948657292003,0.44595427449800346,-0.30586941780476107,-0.2008834601376952,0.22755202063237776,0.125158191570579,-0.5552017587591384,0.17856261781520713,-0.03483235954360351,0.3461628730197925,0.03738975594499659,-0.2332420431372081,0.13732101956478954,0.4443853153472988,0.2792901590951599,0.05127641757124706,-0.24922461673095264,0.20198231575343573,0.07483164732068492,0.25777457323368425,-0.2776291287670407,0.06516727300585923,-0.4780840452833914,-0.23082663877694626,0.07665794856381586,-0.2902512524204113,-0.4366067155681968,-0.5069683109226163,-0.06956602420011967,0.1616901361139488,0.4651460584755013,-0.13033110177241342,-0.17704962286356013,0.12985958391840335,0.04397695706926957,-0.008192787158294737,0.100084000470975,0.03817854636045755,0.3811744809903132,0.026566636966267248,0.18025183101188633,0.013185794725859538,-0.009631670616582122,-0.09194264975702388,0.40466962049058575,-0.2412958398771088,-0.22873044749634608,-0.15928294670844279,0.04676712670166556,0.27598325274715657,-0.07932178935550059,-0.2011039782051503,-0.6179221466985583,-0.20031936154559812,-0.3476753591450505,0.39349960846092386,-0.1657101637981702,-0.4259036294031538,0.012971972019516107,-0.31330021046175516,0.27193988203257463,-0.42110267639691756,-0.48441264026136227,0.5134243546508765,0.3481415770367088,-0.019251467152819314,0.15636598262693224,0.34436211645228965,-0.333155040355807,0.11427932140600314,0.06503923165137383,-0.2386570355284099,-0.04036857820269435,0.02020500234003686,0.36832292865972693,-0.3324914818629662,-0.17934621883115118,0.12240596236819931,-0.0360882185408736,-0.4119558822612046,-0.02973301812741895,-0.41452228565391797,-0.049720387709213644,-0.6584567487967423,-0.5380247699515207,-0.6407619259080315,-0.5281440017334418,0.2548455236398899,0.4760780995248837,-0.39708491877332713,0.09210360609137336,-0.08703160185418121,0.2574325744798451,-0.25844087291232876,-0.2728791149556413,-0.49633368612191286,0.37357111299111234,-0.47547872878591746,0.4256288487891511,-0.18142211469166336,-0.4513357810721903,-0.30394935602158635,-0.4145276858381357,-0.39402412842612755,0.4041451163552878,0.3226877326809474,0.4018456247252124,-0.060257152307585764,-0.3873838738868333,0.02595920484428253,0.014887029034569116,0.1883911485122116,-0.4519638717742875,0.393808863814158,-0.6380907973212526,-0.4561844020964402,-0.012017898969610927,0.22668040414022206,-0.4531120354726642,-0.09006047857817648,0.07035273749447996,0.12517516210365937,-0.30548968969533163,0.005949312179417007,-0.3625739036083242,0.22638543266532973,0.1670930288233159,0.43091068499159724,-0.1483174665610535,-0.19114277455661066,-0.11186384330553456,0.46165576928094276,-0.16273571945299303,-0.02641129188227509,0.3427617530555134,0.2270637216172835,-0.06667487171569769,-0.29329352875877246,-0.2921213493957534,-0.31496438590644443,0.1862199523264014,-0.6242811004286725,0.0453250245220717,-0.15559221057710426,0.4090755790910728,0.03925056060254046,0.12315673144672133,-0.3364102346200971,0.03404336796082335,-0.44280916297784934,0.2730909714028753,0.10405871156055224,0.28775301666320263,0.02855560063888518,-0.029771529389412077,-0.4314003127775493,-0.4523837426830839,0.11443371424820725,0.22993753089288171,-0.318376718632428,0.345561692894909,-0.1963583239740614,0.2336123557394797,-0.004733129710766004,0.320241177216375,-0.26740713270724553,-0.30621686586191205,-0.13703268605240473,-0.3412178985690024,-0.2161293802771196,0.41919013615287326,-0.4275332461089703,-0.42330258000478,0.2521579765493992,0.43324681085302413,0.3805641091718141,0.0947294575161498,-0.31545987287531596,0.3591788558329616,-0.44577818454157614,-0.4449492619537493,0.4335471738176332,0.4109530583516994,-0.3218478323285322,-0.3582135499984742,0.1212638961445397,0.03469887556994833,-0.06708387939598037,-0.0843263398906704,-0.37806215695237655,-0.33406961804479474,0.008303461794740064,0.22059527250309308,-0.33823610056603437,-0.3249824896253327,0.4363033282766421,0.23139392043655313,-0.24108788619644975,0.0022499599210756937,0.09140597434402364,0.2126383097802208,-0.298524696697537,-0.2460528580811171,0.17238517962679423,-0.12813523029909735,-0.4825784891686773,-0.29303744644098806,-0.17828048428340104,-0.4106981387407138,0.48442826615145584,-0.18928093614093844,-0.1906808275768873,-0.030085578902777188]},{"biasWeight":0.19786518867612354,"noInputs":784,"delta":7.77861720166004E-12,"weights":[-0.35713436818261945,0.38398193733955777,0.4147671149677915,0.2716795369902525,0.2289342218209528,0.4790105924263145,-0.4712686138768244,0.4272339242124493,-0.040475133746518566,-0.05231880967270808,0.08100015693438556,-0.41001806146155073,-0.058888019670422787,0.39975983000480975,-0.2402262088522602,-0.12852528087367965,-0.1554103676578562,-0.4879767942987223,0.14705133960947603,-0.03584235470884445,0.20336834183147623,0.3937460853668818,0.18028104938843525,0.37750769863387024,0.15678153342508605,-0.29762328368913804,-0.1353053376131318,-0.25354368943815453,-0.16524507252792675,-0.2748712367752755,0.1534702855825314,0.4029245531773502,-0.06386222072650727,-0.43102345334959646,-0.2775610613807512,-0.09382070604197168,-0.4342103991173839,-0.06545222797605488,-0.16812997776173055,-0.3611471007856888,0.06446210789509854,-0.3113337849600065,-0.41274438720519,-0.10983502923066107,0.3880243446333791,-0.4041959937979186,-0.28917776310540344,0.09300681080438278,-0.4044854453393074,0.12046166493775146,0.29485758452006183,-0.06378011915253368,0.06798429989465771,0.17050130856613,0.24918411215945957,0.25995699144576456,-0.47552887676948563,0.015716694179440216,-0.28584906019579903,0.39636703493100955,0.16360013895314962,0.3864310049881158,0.2642608338243151,-0.38309892420524183,0.01618476575077464,-0.06919382807015961,-0.2979063568881531,0.026671596579190784,0.2800665127777658,-0.21955226877999964,0.023039568484001353,-0.08279375481057116,0.3405174071851745,0.1681014827539433,-0.5031928524894299,0.26666956604021214,0.37694019823042,-0.42315334637664914,0.48148265431704784,0.13207265489036335,0.18310492927922173,-0.39869382589489155,0.29332924434086005,-0.08319094931945481,0.29352481467765956,0.3413365532802679,0.39473113526202364,-0.3076036530699221,-0.3454060488173253,-0.010168186635722831,0.22263286141581978,-0.1728088398541772,-0.0875077135261062,0.04366702581303858,0.2142897192955895,-0.17596488142556357,-0.2846667177680045,-0.49650860612138786,-0.01179975440408455,0.31384920919850334,-0.47257552852474305,-0.021761864034548686,-0.39190074389366136,-0.062334585157738445,-0.13678270417886668,0.3843225011651268,-0.03400042302037305,0.3429701317949524,-0.13850176738412934,-0.26538793485667445,0.23577349186025975,0.0666369725651228,0.10213750120439913,0.003479460447838423,-0.25970165900637177,0.09705910816897956,-0.029333288853734873,0.028831117691393682,-0.4905315222791344,0.31366057962972954,0.32834946137384147,0.014412685155188353,-0.3765902794301585,0.0441686180251525,-0.1397907604912338,-0.29906145320430244,-0.49820936329790566,-0.5839896693288013,-0.31394206703399297,-0.04115355136366694,-0.5322773985484078,0.1751263115020291,-0.08205735979569988,0.18367599158506728,-0.3671156599501221,-0.11907910754535508,-0.30777588518278065,0.05028460526839573,0.03265781118206845,0.48473187612606083,0.27890967824936075,-0.45279163642491627,0.3505924314787393,0.2976816270805456,-0.31198513708142894,-0.35643948568003314,-0.45949982817661617,-0.35836897800456086,-0.12026968656189639,0.003357444209545314,0.05601337391931695,-0.12152294809970084,0.20636128926136627,0.001730997596121598,-0.10753770837636015,0.27991765143226816,-0.14302237860634084,0.1623394187194052,-0.0042300652157717,-0.05401396000938804,-0.4862307348564162,-0.24118233125657032,0.3480181293535547,-0.5108856436614867,-0.019351625600421692,0.11779291521276526,0.14844695179715883,0.4869342844283959,-0.25402517644299416,0.3591013223563043,0.46101911507239746,-0.17420677349990032,-0.3489000143950855,0.0896744697124317,0.11924413876678511,-0.3458873311191141,-0.6780940438871427,-0.030675883765518816,-0.7527120454740508,-0.0658513828013135,-0.1623496851678392,0.28706849144550334,-0.26497659590562145,0.24069001869118947,0.2753630114575247,-0.053030395928545374,0.25972234372263814,-0.35903695709259165,-0.15885082575355766,0.48266053755280597,-0.1077450315322084,-0.4475029218773452,0.3533205182784003,0.1378690319425028,0.029817140049121962,-0.4511142501590488,0.3869574640376161,-0.16175685001898532,-0.301840163699175,0.05386776311703059,-0.28723309247655865,0.1285484728626745,-0.28991339225550433,-0.6965611676466749,-0.28953963014648154,-0.5540308117156089,-0.6543006986908884,0.045573818890947054,-0.21604493204661268,0.5366113814502873,0.45545077872980305,0.34987851261586483,-0.13782987271935349,-0.0018570129144077376,0.17909382544336305,-0.04356324492403693,-0.13893283731480546,0.2656215347159876,0.38395245656412913,0.6156418642893423,0.19702089119327554,-0.3835606075753317,-0.17243156984129127,0.2210005496488786,-0.49100097964821476,0.2573007535445643,-0.09750020269462494,-0.5336295793156384,0.45542136951018725,0.0441401391278001,0.10857010457524727,-0.2862305082403423,-0.13370300305681315,-0.10460566824550639,0.30436555014386485,-0.397676492045265,-0.4373269667577174,0.1616759921563374,0.20231288179531284,-0.24463270355784075,-0.15446291783286872,-0.05943596858768328,0.04738639434581908,-0.12783078266187242,-0.07552663603733412,-0.3656045472197998,0.0098631032114205,-0.299609347808139,0.160176007610129,0.5743916037924316,-0.34031861455795454,0.2603914737984713,0.4878098652782886,0.38872456541871225,0.013328354643173857,-0.3270390066831341,0.21698725783947126,0.16019732882688123,-0.0506502763162868,-0.6675189628471946,0.49205001516808844,0.25210697123996,0.0652855082594967,0.1601564842182443,0.1921314405048085,-0.14121993033009442,-0.3678010013994532,0.002298452454027288,-0.21131074040092918,-0.3796926762973943,0.07029362064494188,-0.40713865639480734,-0.03806640747216591,-0.03845711546636228,-0.13794781057755345,-0.2953536447526186,-0.07534792963987604,0.013076894632670618,0.3245489076298964,0.37461710718060637,-0.08384843611836057,-0.22712322465045098,-0.2044685772975131,-0.247848385574583,0.19332367804401102,-0.04804027349803253,-0.03478647967140138,0.27829924809533546,0.15581948988071465,-0.09343637265984396,-0.08788507302339664,0.24158412021232928,-0.21109171173976335,-0.569018232882319,0.29233432839060974,-0.3184784744308288,0.2341287317611361,0.1286785192671912,-0.24892217601781455,0.2860919733535876,0.011591102353720845,-0.12761916808677928,-0.14997787428845658,-0.07801006245596076,-0.023155697287822657,-0.36234846914715924,-0.2948374588780922,-0.21050036187159715,-0.09865076915362414,0.15039476425994613,-0.10777696267273262,-0.1256345698523996,0.35880199335329477,0.06042424915341475,-0.4367933991505632,-0.17024406573622156,0.09472452278393391,0.4878064168858235,0.18101735705827726,0.4624292689679881,0.6038332318495174,0.4870045937935375,0.3895601406951586,0.014658439740045956,-0.3614212577519434,0.2623303699729124,-0.22839370268915407,-0.11946250587666186,-0.031857961490410196,0.29993205424248653,0.5966387692078426,0.6093233385266547,-0.3129390684153141,-0.368876104490998,-0.4431362452024831,0.014396528366669603,-0.4236220858001092,0.07035563776274578,-0.06917156294444704,0.0026808025089032806,-0.4272670444320589,0.21796147213458275,-0.24335726938082333,0.13231489394726292,0.48674107925489374,0.04737931357002773,0.350842110558324,-0.25816864218162877,-0.08178158431288012,-0.05403440879259566,-0.07617039465334818,0.07225637927760538,-0.24495871618569212,-0.26971190254297456,-0.3054462980475722,0.43279617493244427,0.323585934107586,0.3968139190882837,-0.021618845632168725,-0.011047865672914794,-0.23460094843447837,-0.3807729798533553,0.4813468693912031,-0.31680915592415204,0.40176370807947615,0.018816192727423076,-0.0059988983174776855,-0.2741066334482265,0.0937226784125179,-0.0425087244851797,0.31824154441725805,0.23281092279296894,0.2700674051805475,-0.0883854109703866,-0.5234057050603014,0.08394307977303282,0.4982482040683237,0.3601366816257612,0.5393483087242089,0.476970176668785,-0.23852503187798565,-0.07421694589887035,0.42085064020702806,-0.26312577477369353,0.17543222355332289,-0.522088274067759,-0.19174319394292186,-0.5214543320803876,-0.0037469755257988936,0.41693961615896846,-0.10164147202050422,0.19789873941621017,0.441984262672116,-0.4109401367813985,0.4213302736181743,-0.0828102334928914,-0.15272673179723376,0.1681315586978665,0.03914126997442704,-0.090160363531236,0.2611032481839066,0.16932128266008814,-0.3851118117256124,-0.3343538706548959,0.07774427823423248,0.5819761234014955,0.07642577271140716,0.30701770620695795,-0.3800058087603621,0.12926740767862147,-0.09682047816892494,-8.590213011578804E-4,-0.4362828901634432,-0.2601851146220314,-0.14162533961770882,0.34663704152687724,0.09362358624383618,-0.08468190115107033,-0.3721990006836441,0.09417494142155491,-0.4997501833180227,0.235390209297487,-0.2683019085599673,0.045835566814226736,-0.08802258577939374,-0.29374879305494467,-0.1438022026789522,-0.06243632080702714,-0.09448542711478046,-0.33518123640462505,0.3564345363542146,0.23709786573296981,0.36103720663403205,0.43509423868830005,0.17297940524933467,-0.3309191862453162,-0.3377752037241354,0.019544654482888148,0.11063741283038545,-0.6891822826498437,-0.33806876977505007,-0.683802509336754,0.14121923198784547,0.04515844461261062,-0.4287790758327186,-0.46235638089572056,-0.12687989219268492,-0.4158696860126204,-0.21050958408321196,0.016568573587798396,-0.05296846780793141,-0.3937542490088994,-0.27630837448591083,-0.5439738364416953,0.1543095261816543,-0.3642736822865066,0.46239009201037684,0.3138229689501136,-0.2251300713111338,0.31040966122580715,-0.003038289025098786,-0.3960412708163018,0.3826746343255114,-0.45217532955011913,-0.32393685031859804,-0.40437199696255555,-0.4691660559805974,-0.776828999850966,-0.44383678977724333,-0.5141912836400654,-0.39505504857401647,0.22116335792719735,0.3247877669947402,-0.029286633520338466,-0.47680210197424444,-0.38824230310791585,-0.2949293593327361,0.4430010103073322,0.40787296988388566,0.18779640016903495,-0.1346402525637559,-0.49407247224955014,0.2696031450507946,-0.42390679357350364,-0.22894798617151876,-0.25172763379742624,-0.44258669627908653,-0.14336035931526656,-0.008357873371951105,0.6748840926114004,-0.07377590924728378,0.030560036495874552,0.010573063036627754,-0.2558355290646592,-0.3370186180619516,-0.5377105269774993,-0.3687417185130695,-0.49048463519059315,-0.3050641476598447,-0.1803387640833728,0.21530503990983585,-0.08804743834052357,0.497404452584761,-0.020104019884017,0.24619832025685273,0.09353742842807022,-0.3949546826833707,0.33469718956012273,-0.10064435019331702,-0.1011621374583379,-0.19517649898765363,0.20152560969963057,-0.08964261799109793,0.1749062835507297,0.2754218368990741,0.4300069710176718,0.15006672924414977,0.20059911647301862,0.40401392790247137,-0.5019273012979821,0.14617163117409981,-0.049293782986924946,-0.7083779539454138,-0.5885751929179152,-0.44079508476203993,-0.4980237370057252,0.02049530551427538,-0.5563728740480893,-0.18438011509039504,0.17315943771948689,-0.06343556001838252,-0.324955821919233,-0.29181082987496443,0.06325399534474774,-0.4149684359258983,-0.20242359598907453,0.28688586877323974,-0.1065809764465983,-0.393745010060484,0.14737373011477967,-0.34977984641047,0.030977390096320133,-0.25126680131139306,-0.1083418314635993,-0.2763133077160062,0.12713079566807967,-0.49769063857032536,-0.21060998643155185,0.013034966181033773,0.03349079504801125,-0.540061076236793,-0.01947395031830114,0.1920146923688403,-0.378327876407922,-0.33209454643364056,-0.43584415518551844,-0.11936728431728875,0.33217251224983496,0.04800233048225068,0.4274708828153464,0.4366945533379216,-0.4571526890667815,0.09368978709179653,-0.4411410792498774,0.041842488003254484,-0.3647438946519919,0.3655976449454976,0.25038417288035797,0.06533052825429589,0.2985769192822847,-0.12852196856234457,-0.43412064011236967,0.12168358161628996,-0.09868019779451578,-0.31392404633906573,0.03276237137004797,-0.43210272392484156,-0.4707254489958134,-0.11346712327971686,0.23782485217427304,0.12554180399327602,-0.20836932909492856,-0.5038291485700559,-0.2546442445301981,0.2801751028834222,-0.17871067018892883,-0.049636970871735825,-0.2010529764613933,-0.30230528099928655,-0.08672303433436357,-0.14517666699177775,0.23630166388701368,0.0952557047065241,-0.6211321006108066,-0.04885662210238356,-0.2028857308232439,-0.37809977182814314,-0.24355723168036683,-0.2510284134848412,-0.5117582435429967,-0.2393726185736463,-0.05978779050567966,-0.22969674310193866,-0.24596621787892775,0.002944131395213561,0.12256806524452868,-0.7067430802963951,-0.5331258912881284,-0.23973132515688708,-0.6181961886622419,0.18226033214803816,-0.44893706549169554,-0.43829665893257197,0.40927147686104776,0.08367928569211912,-0.31093773339247943,0.07350559013121305,-0.33394951548623286,0.237589780067348,-0.10281476533622659,0.3732614171247521,-0.4339606502020927,-0.08639941918851876,0.21397817451853865,0.24725727524677382,-0.3596991103198705,-0.15644259437586316,-0.2651450882499443,0.08233878900661927,-0.18167521307517456,0.03617845727279882,-0.3334159571028697,-0.38412639172406277,0.0030744578718690106,-0.49800593452434977,-0.08001002147232447,-0.09406740615134808,0.20027392982197298,0.28810890600091665,-0.28882922406612777,-0.2213823612544534,0.2206557932865823,0.3984454783412863,0.09346893571013581,0.24524176440951195,0.23005319335977792,-0.272918971348756,0.142063130754085,0.23375920540313885,-0.27808333925603734,0.19322859874736312,-0.04738377987387959,-0.6393124023761667,-0.10957619512697853,-0.49616442432098684,0.42287368536713377,-0.4393580495512869,-0.09467070133501691,0.3665297513314648,-0.4378447437549375,0.201154525437911,-0.24088878545512618,0.1613261523760283,-0.09515866752464629,0.30179600520860034,-0.18261866731752263,0.36488552169870747,-0.4021026103791951,-0.00853911650453172,0.027204345289367056,-0.0636140050327948,0.23352961850025933,-0.43387524142721123,0.4000825443366306,0.1255581199952247,-0.3826930934361943,-0.22461356735275562,-0.2204408014706643,-0.08616626029542158,0.36008551236508507,0.04273469995009584,0.03370949097201315,0.027944342771819067,0.4739516917871325,-0.0898518688045796,0.11568449001897578,0.2933044212838761,-0.014155876924820768,